svm_type epsilon_svr
kernel_type rbf
gamma 0.5
nr_class 2
total_sv 471
rho 0.232719
SV
-0.5 1:0.754264 2:0.616196 3:0.0908026 4:0.533098 5:-1 
-0.5 1:0.754264 2:0.616196 3:0.0908026 4:0.531024 5:-1 
-0.5 1:0.754264 2:0.616196 3:0.0908026 4:0.530617 5:-1 
-0.5 1:0.754264 2:0.616196 3:0.0908026 4:0.529684 5:-1 
-0.5 1:0.754264 2:0.616196 3:0.0908026 4:0.530025 5:-1 
0.5 1:0.754264 2:0.616196 3:0.0908026 4:0.529575 5:-0.571557 
-0.5 1:0.754264 2:0.616196 3:0.0908026 4:0.529551 5:-1 
-0.5 1:0.754264 2:0.616196 3:0.0908026 4:0.537334 5:-1 
-0.5 1:0.754264 2:0.616196 3:0.0908026 4:0.531192 5:-1 
-0.3995819928260658 1:0.754264 2:0.616196 3:0.0908026 4:0.529553 5:-0.20012 
-0.2288017572384706 1:0.747287 2:0.616196 3:-0.954306 4:0.36917 5:-1 
-0.5 1:0.0806202 2:-0.109237 3:0.0908026 4:-0.00865939 5:-1 
-0.5 1:0.220155 2:0.616196 3:0.0908026 4:0.445139 5:-1 
0.5 1:0.220155 2:0.616196 3:0.0908026 4:0.43545 5:-1 
-0.5 1:0.220155 2:0.616196 3:0.0908026 4:0.440107 5:-1 
0.5 1:0.220155 2:0.616196 3:0.0908026 4:0.755835 5:-1 
-0.5 1:0.220155 2:0.616196 3:0.0908026 4:0.753522 5:-1 
-0.5 1:0.293798 2:0.696331 3:0.0908026 4:0.482627 5:-1 
0.5 1:0.220155 2:0.616196 3:0.0908026 4:0.532702 5:-1 
0.5 1:0.220155 2:0.616196 3:0.0908026 4:0.566309 5:-1 
-0.5 1:0.220155 2:0.616196 3:0.0908026 4:0.487421 5:-0.50015 
0.5 1:0.220155 2:0.616196 3:0.0908026 4:0.619878 5:-1 
0.5 1:0.220155 2:0.616196 3:0.0908026 4:0.472202 5:-0.0771077 
-0.5 1:0.220155 2:0.616196 3:0.0908026 4:0.441085 5:-0.0771077 
-0.5 1:0.220155 2:0.616196 3:0.0908026 4:0.487578 5:-1 
-0.5 1:0.220155 2:0.616196 3:0.0908026 4:0.468461 5:-1 
-0.5 1:0.220155 2:0.616196 3:0.0908026 4:0.508515 5:-0.50015 
0.5 1:0.220155 2:0.616196 3:0.0908026 4:0.561559 5:-1 
0.5 1:0.220155 2:0.616196 3:0.0908026 4:0.523423 5:-1 
0.5 1:0.220155 2:0.616196 3:0.0908026 4:0.527381 5:-1 
0.5 1:0.220155 2:0.616196 3:0.0908026 4:0.536042 5:-1 
-0.5 1:0.379845 2:0.616196 3:0.0908026 4:0.532702 5:-1 
0.5 1:0.76124 2:0.616196 3:0.0908026 4:0.517716 5:-1 
-0.5 1:0.76124 2:0.616196 3:0.147042 4:0.472997 5:-1 
0.5 1:0.76124 2:0.616196 3:-0.354423 4:0.39297 5:-1 
0.5 1:0.76124 2:0.616196 3:0.0908026 4:0.551769 5:-1 
-0.5 1:0.76124 2:0.616196 3:0.0908026 4:0.523078 5:-0.249925 
0.5 1:0.76124 2:0.616196 3:0.0908026 4:0.674266 5:-0.59976 
-0.5 1:0.795349 2:0.653311 3:0.0908026 4:0.473379 5:-1 
0.5 1:0.804651 2:0.663433 3:0.0908026 4:0.572135 5:-1 
-0.5 1:0.76124 2:0.616196 3:0.0908026 4:0.661452 5:-1 
-0.5 1:0.495349 2:0.616196 3:0.0908026 4:0.532702 5:-1 
-0.5 1:0.495349 2:0.616196 3:0.0908026 4:0.532702 5:-1 
-0.5 1:0.495349 2:0.616196 3:0.0908026 4:0.532702 5:-1 
-0.5 1:0.495349 2:0.616196 3:0.0908026 4:0.532702 5:-0.50015 
-0.5 1:0.848837 2:0.616196 3:0.0908026 4:0.536044 5:-1 
0.5 1:0.742636 2:0.500633 3:0.0908026 4:0.53026 5:-1 
-0.5 1:0.812403 2:0.57655 3:0.0908026 4:0.526835 5:-1 
-0.5 1:0.816279 2:0.580768 3:0.0908026 4:0.521519 5:-1 
-0.5 1:0.848837 2:0.616196 3:0.0908026 4:0.512181 5:-0.454545 
-0.5 1:0.848837 2:0.616196 3:-0.186878 4:0.536688 5:-0.454545 
0.5 1:0.789147 2:0.616196 3:0.0908026 4:0.493475 5:-1 
-0.5 1:0.789147 2:0.616196 3:0.0908026 4:0.71205 5:-1 
0.5 1:0.789147 2:0.616196 3:0.0908026 4:0.555979 5:-1 
-0.5 1:0.789147 2:0.616196 3:0.0908026 4:0.580492 5:-0.768977 
0.5 1:0.789147 2:0.616196 3:0.0908026 4:0.351247 5:-0.768977 
0.5 1:0.789147 2:0.616196 3:0.0908026 4:0.430293 5:-0.768977 
0.5 1:0.789147 2:0.616196 3:0.0908026 4:0.490855 5:-0.555356 
0.5 1:0.789147 2:0.616196 3:0.0908026 4:0.595818 5:-1 
0.5 1:0.789147 2:0.616196 3:0.0908026 4:0.555474 5:-1 
0.5 1:0.789147 2:0.616196 3:0.0908026 4:0.553198 5:-1 
0.5 1:0.789147 2:0.616196 3:0.0908026 4:0.510755 5:-0.768977 
0.5 1:0.789147 2:0.616196 3:0.0908026 4:0.465764 5:-1 
0.5 1:0.789147 2:0.616196 3:0.0908026 4:0.572983 5:-0.768977 
0.5 1:0.789147 2:0.616196 3:0.0908026 4:0.620342 5:-0.768977 
0.5 1:0.789147 2:0.616196 3:0.0908026 4:0.562809 5:-0.357336 
0.5 1:0.789147 2:0.616196 3:0.0908026 4:0.441208 5:-0.357336 
0.5 1:0.789147 2:0.616196 3:0.0908026 4:0.560026 5:-0.768977 
0.5 1:0.789147 2:0.616196 3:0.0908026 4:0.603066 5:-1 
-0.5 1:0.789147 2:0.616196 3:0.0908026 4:0.563383 5:-0.768977 
0.5 1:0.789147 2:0.616196 3:0.0908026 4:0.591004 5:-1 
0.5 1:0.789147 2:0.616196 3:0.0908026 4:0.580461 5:-1 
-0.5 1:0.789147 2:0.616196 3:0.0908026 4:0.508993 5:-1 
0.5 1:0.789147 2:0.616196 3:0.0908026 4:0.607731 5:-0.555356 
0.5 1:0.789147 2:0.616196 3:0.0908026 4:0.569217 5:-0.555356 
-0.5 1:0.789147 2:0.616196 3:-0.539543 4:0.411251 5:-1 
0.5 1:0.789147 2:0.616196 3:-0.446983 4:0.532702 5:-1 
0.5 1:0.789147 2:0.616196 3:0.0908026 4:0.512959 5:-1 
0.5 1:0.824806 2:0.616196 3:0.0908026 4:0.432416 5:-0.279928 
0.5 1:0.824806 2:0.616196 3:0.0908026 4:0.166621 5:-0.738974 
0.5 1:0.824806 2:0.616196 3:0.0908026 4:0.463813 5:-1 
0.5 1:0.824806 2:0.616196 3:0.0908026 4:-0.456422 5:-0.738974 
0.5 1:0.787597 2:0.616196 3:0.0908026 4:0.559021 5:-1 
0.5 1:0.787597 2:0.616196 3:0.0908026 4:0.532702 5:-1 
-0.5 1:0.787597 2:0.616196 3:0.0908026 4:0.525368 5:-1 
0.5 1:0.787597 2:0.616196 3:0.0908026 4:0.527591 5:-1 
0.5 1:0.787597 2:0.616196 3:0.0908026 4:0.521707 5:-1 
0.5 1:0.815504 2:0.646563 3:0.0908026 4:0.534575 5:-1 
0.5 1:0.75814 2:0.584142 3:0.0908026 4:0.438525 5:-1 
-0.5 1:0.787597 2:0.616196 3:0.0908026 4:0.491595 5:-0.20012 
0.5 1:0.787597 2:0.616196 3:0.0908026 4:0.522761 5:-0.571557 
0.5 1:0.787597 2:0.616196 3:0.0908026 4:0.545037 5:-0.571557 
-0.5 1:0.787597 2:0.616196 3:0.0908026 4:0.492235 5:-1 
-0.5 1:0.787597 2:0.616196 3:0.0908026 4:0.435289 5:-0.571557 
0.5 1:0.787597 2:0.616196 3:0.0908026 4:0.505961 5:-1 
-0.5 1:0.109302 2:0.616196 3:0.0908026 4:0.688152 5:-1 
-0.5 1:0.109302 2:0.616196 3:0.0908026 4:0.588959 5:-1 
-0.5 1:0.109302 2:0.616196 3:0.0908026 4:0.568248 5:0.20012 
-0.5 1:0.109302 2:0.616196 3:0.0908026 4:-0.245313 5:-0.333333 
0.5 1:0.109302 2:0.616196 3:0.0908026 4:0.59325 5:-0.333333 
-0.5 1:0.109302 2:0.616196 3:0.0908026 4:0.388688 5:-0.333333 
0.5 1:0.109302 2:0.616196 3:0.0908026 4:0.511556 5:-0.333333 
-0.5 1:0.109302 2:0.616196 3:0.0908026 4:0.588648 5:-0.333333 
-0.2377919808011975 1:0.109302 2:0.616196 3:0.0908026 4:0.557235 5:-1 
-0.5 1:0.0906977 2:0.595951 3:0.0908026 4:0.507193 5:-1 
-0.5 1:0.109302 2:0.616196 3:0.0908026 4:0.517577 5:-1 
-0.5 1:0.572093 2:0.616196 3:0.106034 4:0.53639 5:-1 
0.5 1:0.572093 2:0.616196 3:0.0908026 4:0.541721 5:-1 
-0.5 1:0.572093 2:0.616196 3:0.0908026 4:0.528388 5:-1 
0.5 1:0.572093 2:0.616196 3:0.0908026 4:0.526868 5:-0.142514 
0.5 1:0.572093 2:0.616196 3:0.0908026 4:0.532986 5:-1 
0.5 1:0.572093 2:0.616196 3:0.0908026 4:0.496278 5:-1 
0.5 1:0.572093 2:0.616196 3:0.0908026 4:0.527383 5:-1 
-0.5 1:0.714729 2:0.653311 3:0.0908026 4:0.533447 5:-1 
-0.5 1:0.731783 2:0.671868 3:0.0908026 4:0.519122 5:-1 
-0.5 1:0.664341 2:0.598482 3:0.0908026 4:0.483739 5:-1 
-0.5 1:0.68062 2:0.616196 3:0.0908026 4:0.530662 5:-0.249925 
-0.5 1:0.68062 2:0.616196 3:0.0908026 4:0.560226 5:-1 
-0.5 1:0.68062 2:0.616196 3:0.0908026 4:0.532702 5:-1 
-0.5 1:0.68062 2:0.616196 3:0.0908026 4:0.54537 5:-1 
-0.5 1:0.714729 2:0.603543 3:0.0908026 4:0.496254 5:-1 
0.5 1:0.726357 2:0.616196 3:0.0908026 4:0.545817 5:-1 
-0.5 1:0.347287 2:0.604386 3:0.0908026 4:0.532702 5:-1 
-0.5 1:0.35814 2:0.616196 3:0.0908026 4:0.532702 5:-0.59976 
-0.5 1:0.35814 2:0.616196 3:0.0908026 4:0.532702 5:-1 
-0.5 1:0.35814 2:0.616196 3:0.0908026 4:0.532702 5:-1 
-0.5 1:0.534109 2:0.616196 3:0.0908026 4:0.519371 5:-1 
-0.5 1:0.534109 2:0.616196 3:0.0908026 4:0.54179 5:-1 
0.5 1:0.534109 2:0.616196 3:-0.459871 4:0.532702 5:-1 
-0.5 1:0.534109 2:0.616196 3:0.0908026 4:0.569339 5:-1 
0.5 1:0.527907 2:0.616196 3:0.0908026 4:0.569914 5:-1 
-0.5 1:0.24031 2:0.303248 3:0.0908026 4:0.488289 5:-1 
-0.5 1:0.418605 2:0.497259 3:0.0908026 4:0.497138 5:-1 
-0.5 1:0.527907 2:0.616196 3:0.0908026 4:0.51987 5:-0.59976 
-0.5 1:0.527907 2:0.616196 3:0.0908026 4:0.495878 5:-1 
-0.5 1:0.527907 2:0.616196 3:0.0908026 4:0.550186 5:-0.249925 
0.5 1:0.527907 2:0.616196 3:0.0908026 4:0.547217 5:-0.59976 
0.5 1:0.527907 2:0.616196 3:0.0908026 4:0.507361 5:-1 
-0.5 1:0.527907 2:0.616196 3:0.0908026 4:0.488888 5:-1 
-0.5 1:0.527907 2:0.616196 3:0.0908026 4:0.553126 5:-1 
-0.5 1:0.527907 2:0.616196 3:0.0908026 4:0.427134 5:-0.59976 
-0.5 1:0.527907 2:0.616196 3:-0.428237 4:0.362669 5:-1 
0.5 1:0.337209 2:0.616196 3:0.0908026 4:0.532702 5:-1 
0.5 1:0.337209 2:0.616196 3:0.0908026 4:0.532702 5:-1 
0.5 1:0.337209 2:0.616196 3:0.0908026 4:0.532702 5:-1 
0.5 1:0.337209 2:0.616196 3:0.0908026 4:0.532702 5:-1 
0.5 1:0.369767 2:0.616196 3:0.0908026 4:0.532702 5:-1 
0.5 1:0.369767 2:0.616196 3:0.0908026 4:0.532702 5:-0.684368 
0.5 1:0.369767 2:0.616196 3:0.0908026 4:0.532702 5:-0.684368 
0.5 1:0.369767 2:0.616196 3:0.0908026 4:0.532702 5:-1 
0.5 1:0.735659 2:0.616196 3:-0.209139 4:0.503137 5:-1 
-0.5 1:0.735659 2:0.616196 3:-0.867604 4:0.476716 5:-1 
0.5 1:0.744961 2:0.616196 3:-0.818395 4:0.364626 5:-1 
0.5 1:0.744961 2:0.616196 3:0.0908026 4:0.58333 5:-1 
0.5 1:0.729457 2:0.599325 3:0.0908026 4:0.514157 5:-1 
0.5 1:0.616279 2:0.616196 3:0.0908026 4:0.532702 5:-1 
0.5 1:0.616279 2:0.616196 3:0.0908026 4:0.541896 5:-0.666367 
-0.5 1:0.627132 2:0.616196 3:0.0908026 4:0.482184 5:-0.142514 
-0.5 1:-0.110853 2:0.616196 3:0.0908026 4:0.527755 5:-1 
0.5 1:0.24186 2:1 3:0.0908026 4:0.55793 5:-1 
-0.5 1:-0.186822 2:0.53353 3:0.0908026 4:0.532702 5:-1 
-0.5 1:0.35814 2:0.497259 3:0.0908026 4:0.532702 5:-1 
-0.5 1:0.467442 2:0.616196 3:0.0908026 4:0.532702 5:-0.333333 
-0.5 1:0.651163 2:0.616196 3:0.0908026 4:0.519514 5:-0.50015 
-0.5 1:0.454264 2:0.616196 3:0.0908026 4:0.532702 5:-1 
-0.5 1:0.454264 2:0.616196 3:0.0908026 4:0.533897 5:-0.39994 
-0.5 1:0.454264 2:0.616196 3:0.0908026 4:0.535225 5:-1 
-0.5 1:0.454264 2:0.616196 3:0.0908026 4:0.531596 5:-1 
-0.5 1:0.454264 2:0.616196 3:0.0908026 4:0.534451 5:-0.39994 
-0.5 1:0.454264 2:0.616196 3:0.0333919 4:0.528311 5:-1 
-0.5 1:0.454264 2:0.616196 3:-0.984769 4:0.531198 5:-1 
-0.5 1:0.255814 2:0.616196 3:0.0908026 4:0.538429 5:-1 
-0.5 1:0.255814 2:0.616196 3:0.0908026 4:0.496278 5:-1 
-0.5 1:0.255814 2:0.616196 3:0.0908026 4:0.282756 5:-1 
0.5 1:0.255814 2:0.616196 3:0.0908026 4:0.376692 5:-1 
-0.0763373062868276 1:0.255814 2:0.616196 3:0.0908026 4:0.68569 5:-0.142514 
-0.5 1:0.255814 2:0.616196 3:0.0908026 4:0.682447 5:-0.142514 
-0.397591532667996 1:0.255814 2:0.616196 3:-0.719977 4:0.275153 5:-0.142514 
-0.5 1:0.604651 2:0.616196 3:0.0908026 4:0.506891 5:-1 
0.5 1:0.604651 2:0.616196 3:0.0908026 4:0.521065 5:0.20012 
0.5 1:0.604651 2:0.616196 3:0.0908026 4:0.575866 5:0.20012 
-0.5 1:-0.0620155 2:-0.109237 3:0.0908026 4:0.223571 5:-1 
-0.5 1:0.48062 2:0.616196 3:0.0908026 4:0.392484 5:0.00030003 
-0.5 1:0.48062 2:0.616196 3:0.0908026 4:0.5826 5:0.714371 
0.5 1:0.517054 2:0.616196 3:0.0908026 4:0.532452 5:-1 
-0.5 1:0.517054 2:0.616196 3:0.0908026 4:0.532281 5:-1 
0.5 1:0.517054 2:0.616196 3:0.0908026 4:0.532894 5:-1 
-0.5 1:0.517054 2:0.616196 3:0.0908026 4:0.532802 5:-1 
-0.5 1:0.517054 2:0.616196 3:0.0908026 4:0.532702 5:-1 
0.5 1:0.517054 2:0.616196 3:0.0908026 4:0.533243 5:-1 
0.5 1:0.517054 2:0.616196 3:0.0908026 4:0.532326 5:-1 
0.5 1:0.517054 2:0.616196 3:0.0908026 4:0.533429 5:-1 
-0.5 1:0.517054 2:0.616196 3:0.0908026 4:0.533219 5:-1 
0.5 1:0.551938 2:0.654154 3:0.0908026 4:0.532505 5:-1 
-0.5 1:0.62093 2:0.729228 3:0.0908026 4:0.531941 5:-1 
0.5 1:0.479845 2:0.575706 3:0.0908026 4:0.534028 5:-1 
-0.5 1:0.517054 2:0.616196 3:0.0908026 4:0.530865 5:-1 
-0.5 1:0.517054 2:0.616196 3:0.0908026 4:0.533276 5:-1 
-0.5 1:0.517054 2:0.616196 3:0.0908026 4:0.533921 5:-1 
-0.5 1:0.517054 2:0.616196 3:0.0908026 4:0.530337 5:-1 
0.5 1:0.517054 2:0.616196 3:0.0908026 4:0.536198 5:-1 
0.5 1:0.517054 2:0.616196 3:0.0908026 4:0.533435 5:-0.538554 
0.5 1:0.517054 2:0.616196 3:0.0908026 4:0.533719 5:-0.142514 
0.5 1:0.517054 2:0.616196 3:0.155243 4:0.525685 5:-1 
0.5 1:0.244186 2:0.616196 3:0.0908026 4:0.532702 5:-1 
0.5 1:0.244186 2:0.616196 3:0.0908026 4:0.532702 5:-0.0771077 
0.3928080623041642 1:0.244186 2:0.616196 3:0.0908026 4:0.532702 5:-0.50015 
0.5 1:0.779845 2:0.616196 3:0.0908026 4:0.546532 5:-1 
0.5 1:0.779845 2:0.616196 3:0.0908026 4:0.631488 5:-1 
0.5 1:0.779845 2:0.616196 3:0.0908026 4:0.78101 5:-1 
0.5 1:0.779845 2:0.616196 3:0.0908026 4:-0.797796 5:-0.726973 
0.5 1:0.779845 2:0.616196 3:0.0908026 4:0.588724 5:-0.726973 
0.5 1:0.779845 2:0.616196 3:0.0908026 4:0.491019 5:-0.726973 
-0.5 1:0.779845 2:0.616196 3:0.0908026 4:0.739142 5:-1 
-0.07262040726667389 1:0.779845 2:0.616196 3:-0.313415 4:-0.771967 5:-0.726973 
0.5 1:0.957364 2:0.616196 3:0.0908026 4:0.881778 5:-1 
0.5 1:0.957364 2:0.616196 3:0.0908026 4:0.502402 5:-1 
0.5 1:0.957364 2:0.616196 3:0.0908026 4:0.465464 5:-1 
-0.5 1:0.645736 2:0.616196 3:0.0908026 4:0.532702 5:-1 
-0.07914798216885227 1:0.629457 2:0.598482 3:0.0908026 4:0.532702 5:-1 
0.5 1:0.155814 2:0.0830873 3:0.0908026 4:0.532702 5:-1 
-0.5 1:0.645736 2:0.616196 3:0.0908026 4:0.532702 5:-1 
-0.5 1:0.645736 2:0.616196 3:0.0908026 4:0.532702 5:-1 
-0.5 1:0.645736 2:0.616196 3:0.0908026 4:0.532702 5:-1 
0.5 1:0.645736 2:0.616196 3:0.0908026 4:0.532702 5:-1 
0.5 1:0.645736 2:0.616196 3:0.436438 4:0.532702 5:-1 
0.5 1:0.645736 2:0.616196 3:0.0908026 4:0.532702 5:-1 
0.5 1:0.434109 2:0.616196 3:0.0908026 4:0.511668 5:-1 
0.5 1:0.434109 2:0.616196 3:0.0908026 4:0.459738 5:-1 
0.5 1:0.434109 2:0.616196 3:0.0908026 4:0.510475 5:-0.333333 
0.5 1:0.434109 2:0.616196 3:0.0908026 4:0.521492 5:-1 
0.5 1:0.434109 2:0.616196 3:0.0908026 4:0.507312 5:-1 
-0.5 1:0.434109 2:0.616196 3:0.0908026 4:0.571683 5:-1 
-0.5 1:0.353488 2:0.528469 3:0.0908026 4:0.491017 5:-1 
-0.5 1:0.593798 2:0.789962 3:0.0908026 4:0.521741 5:-1 
0.5 1:0.451163 2:0.634753 3:0.0908026 4:0.534947 5:-1 
-0.5 1:0.434109 2:0.616196 3:0.0908026 4:0.528946 5:-1 
0.5 1:0.434109 2:0.616196 3:0.0908026 4:0.532702 5:-1 
-0.5 1:0.434109 2:0.616196 3:0.0908026 4:0.587592 5:-1 
0.5 1:0.434109 2:0.616196 3:0.0908026 4:0.538862 5:-1 
0.5 1:0.472093 2:0.616196 3:0.0908026 4:0.541608 5:-1 
0.5 1:0.472093 2:0.616196 3:0.0908026 4:0.548163 5:-1 
-0.5 1:0.472093 2:0.616196 3:0.0908026 4:0.473747 5:-1 
-0.5 1:0.472093 2:0.616196 3:0.0908026 4:0.55046 5:-1 
0.5 1:0.472093 2:0.616196 3:0.0908026 4:0.522291 5:-1 
0.5 1:0.472093 2:0.616196 3:0.0908026 4:0.641788 5:-1 
-0.5 1:0.472093 2:0.616196 3:0.0908026 4:0.469691 5:-1 
0.5 1:0.472093 2:0.616196 3:0.0908026 4:0.586415 5:-1 
0.5 1:0.472093 2:0.616196 3:0.0908026 4:0.604935 5:-1 
0.5 1:0.472093 2:0.616196 3:0.0908026 4:0.511827 5:-1 
0.5 1:0.472093 2:0.616196 3:0.0908026 4:0.564938 5:-0.538554 
-0.5 1:0.472093 2:0.616196 3:0.0908026 4:0.284305 5:-0.538554 
-0.5 1:0.472093 2:0.616196 3:0.0908026 4:-1 5:-0.538554 
0.5 1:0.472093 2:0.616196 3:0.0908026 4:0.483585 5:-0.538554 
0.5 1:0.362791 2:0.497259 3:0.0908026 4:0.454291 5:-1 
0.5 1:0.58062 2:0.734289 3:0.0908026 4:0.532702 5:-1 
0.5 1:0.472093 2:0.616196 3:0.0908026 4:0.516245 5:-1 
-0.5 1:0.715504 2:0.616196 3:0.0908026 4:0.551207 5:-1 
-0.5 1:0.715504 2:0.616196 3:0.0908026 4:0.532702 5:-1 
-0.5 1:0.587597 2:0.616196 3:0.0908026 4:0.49909 5:-1 
0.5 1:0.587597 2:0.616196 3:0.0908026 4:0.513752 5:-1 
-0.5 1:0.587597 2:0.616196 3:0.0908026 4:0.420984 5:-1 
-0.5 1:0.0937984 2:0.616196 3:0.0908026 4:0.532702 5:-0.624962 
0.5 1:0.0937984 2:0.616196 3:0.0908026 4:0.532702 5:-1 
-0.5 1:0.0937984 2:0.616196 3:0.0908026 4:0.532702 5:-0.624962 
-0.5 1:0.0937984 2:0.616196 3:0.0908026 4:0.532702 5:-1 
0.5 1:0.0937984 2:0.616196 3:0.0908026 4:0.532702 5:-0.624962 
-0.5 1:0.102326 2:0.625474 3:0.0908026 4:0.532702 5:-1 
0.5 1:0.096124 2:0.618726 3:0.0908026 4:0.532702 5:-1 
-0.5 1:0.290698 2:0.830451 3:0.0908026 4:0.532702 5:-1 
-0.5 1:0.494574 2:0.616196 3:0.0908026 4:0.532702 5:-0.624962 
0.5 1:0.494574 2:0.616196 3:0.0908026 4:0.532702 5:-1 
0.5 1:0.489922 2:0.477857 3:0.0908026 4:0.532702 5:-1 
0.5 1:0.520155 2:0.510755 3:0.0908026 4:0.570612 5:-1 
0.5 1:0.399225 2:0.379165 3:0.0908026 4:0.472206 5:-1 
0.5 1:0.617054 2:0.616196 3:0.0908026 4:0.532702 5:0.636364 
0.5 1:0.617054 2:0.616196 3:0.0908026 4:0.549068 5:-1 
0.5 1:0.553488 2:0.616196 3:0.0908026 4:0.533433 5:-1 
0.5 1:0.553488 2:0.616196 3:0.0908026 4:0.531504 5:-1 
-0.5 1:0.553488 2:0.616196 3:-0.654364 4:0.430029 5:-1 
0.5 1:0.553488 2:0.616196 3:0.0908026 4:0.529749 5:-0.333333 
0.5 1:0.553488 2:0.616196 3:0.0908026 4:0.531492 5:-1 
0.5 1:0.553488 2:0.616196 3:0.0908026 4:0.533556 5:-1 
0.5 1:0.608527 2:0.676086 3:0.0908026 4:0.532074 5:-1 
-0.5 1:0.553488 2:0.616196 3:0.0908026 4:0.532702 5:-1 
-0.5 1:0.553488 2:0.616196 3:0.0908026 4:0.533129 5:-1 
0.5 1:0.553488 2:0.616196 3:0.0908026 4:0.532332 5:-1 
0.5 1:0.553488 2:0.616196 3:0.0908026 4:0.533135 5:-1 
0.5 1:0.553488 2:0.616196 3:0.0908026 4:0.531506 5:-1 
-0.5 1:0.621705 2:0.616196 3:0.0908026 4:0.535791 5:-0.624962 
-0.5 1:0.621705 2:0.616196 3:0.0908026 4:0.529283 5:-0.624962 
-0.5 1:0.625581 2:0.620413 3:0.0908026 4:0.538731 5:-1 
-0.5 1:0.667442 2:0.665964 3:0.0908026 4:0.504899 5:-1 
-0.5 1:0.802326 2:0.812737 3:0.0908026 4:0.553945 5:-1 
0.5 1:0.505426 2:0.616196 3:0.0908026 4:0.572662 5:-1 
-0.5 1:0.505426 2:0.616196 3:0.0908026 4:0.562501 5:-1 
-0.5 1:0.505426 2:0.616196 3:0.0908026 4:0.503317 5:-1 
0.5 1:0.52093 2:0.633066 3:0.0908026 4:0.575698 5:-1 
-0.5 1:0.458915 2:0.565584 3:0.0908026 4:0.634015 5:-1 
0.5 1:0.428682 2:0.532687 3:0.0908026 4:0.83377 5:-1 
-0.5 1:0.505426 2:0.616196 3:0.0908026 4:0.507925 5:0.00030003 
0.5 1:0.505426 2:0.616196 3:0.0908026 4:0.684891 5:-1 
-0.5 1:0.505426 2:0.616196 3:0.0908026 4:0.580373 5:-1 
-0.5 1:0.505426 2:0.616196 3:0.0908026 4:0.572502 5:-1 
-0.5 1:0.505426 2:0.616196 3:0.0908026 4:0.440583 5:-1 
-0.5 1:0.505426 2:0.616196 3:0.0908026 4:0.493481 5:-1 
-0.5 1:0.505426 2:0.616196 3:0.0908026 4:0.48586 5:-1 
-0.5 1:0.505426 2:0.616196 3:0.0908026 4:0.383588 5:-1 
0.5 1:0.109302 2:0.200337 3:0.0908026 4:0.501895 5:-1 
0.5 1:0.317829 2:0.427246 3:0.0908026 4:0.440732 5:-1 
0.4764030457220518 1:0.491473 2:0.616196 3:0.0908026 4:-0.696468 5:-1 
0.5 1:-0.234109 2:-0.088992 3:0.0908026 4:-0.064739 5:-1 
-0.5 1:0.413953 2:0.616196 3:0.0908026 4:0.542951 5:-1 
-0.5 1:0.15969 2:0.0645297 3:0.0908026 4:0.427195 5:-1 
-0.5 1:0.710078 2:0.663433 3:0.0908026 4:0.724142 5:-1 
-0.5 1:0.0496124 2:-0.0552509 3:0.0908026 4:-0.0833308 5:-1 
-0.5 1:0.522481 2:0.4593 3:0.0908026 4:0.395484 5:-1 
-0.5 1:0.666667 2:0.616196 3:0.0908026 4:0.746438 5:-1 
-0.5 1:0.666667 2:0.616196 3:0.0908026 4:0.800777 5:-0.571557 
-0.5 1:0.564341 2:0.616196 3:0.0908026 4:0.532702 5:-0.142514 
-0.5 1:0.564341 2:0.616196 3:0.0908026 4:0.532702 5:-1 
0.5 1:0.694574 2:0.616196 3:0.0908026 4:0.531943 5:-0.624962 
0.5 1:0.0930233 2:0.458456 3:0.0908026 4:0.535683 5:-1 
0.5 1:0.126357 2:0.494728 3:0.0908026 4:0.532702 5:-1 
0.5 1:0.237984 2:0.616196 3:0.0908026 4:0.535182 5:-0.538554 
0.5 1:0.237984 2:0.616196 3:0.0908026 4:0.510107 5:-0.538554 
0.5 1:0.237984 2:0.616196 3:0.0908026 4:0.516509 5:0.20012 
0.5 1:0.237984 2:0.616196 3:-0.234915 4:0.468484 5:-1 
0.5 1:-0.0341085 2:-0.0544074 3:0.0908026 4:-0.272793 5:-1 
0.05316510255376008 1:0.582171 2:0.616196 3:0.0908026 4:0.590512 5:-1 
0.5 1:0.582171 2:0.616196 3:-0.410662 4:0.375167 5:-0.59976 
0.5 1:0.582171 2:0.616196 3:-0.906268 4:-0.81124 5:-1 
0.5 1:0.381395 2:0.616196 3:-0.0169889 4:0.532702 5:-1 
0.5 1:0.381395 2:0.616196 3:0.0908026 4:0.62261 5:-1 
0.5 1:0.381395 2:0.616196 3:0.0908026 4:0.585087 5:-0.571557 
-0.5 1:0.381395 2:0.616196 3:0.0908026 4:0.614672 5:-0.571557 
-0.5 1:0.311628 2:0.540278 3:0.0908026 4:0.483706 5:-1 
0.5 1:0.412403 2:0.649937 3:0.0908026 4:0.581593 5:-1 
-0.5 1:0.433333 2:0.672712 3:0.0908026 4:0.541394 5:-1 
0.5 1:0.368992 2:0.602699 3:0.0908026 4:0.465143 5:-1 
-0.5 1:0.381395 2:0.616196 3:0.0908026 4:0.496511 5:-1 
0.5 1:0.351163 2:0.616196 3:0.0908026 4:0.522025 5:-1 
0.5 1:0.351163 2:0.616196 3:0.0908026 4:0.565445 5:-0.249925 
0.5 1:0.351163 2:0.616196 3:0.0908026 4:0.54622 5:-0.249925 
0.5 1:0.351163 2:0.616196 3:0.0908026 4:0.556553 5:-1 
0.5 1:0.351163 2:0.616196 3:0.0908026 4:0.600256 5:-1 
0.5 1:0.654264 2:0.616196 3:0.0908026 4:0.532583 5:-1 
0.5 1:0.654264 2:0.616196 3:0.0908026 4:0.53149 5:-1 
0.5 1:0.654264 2:0.616196 3:0.0908026 4:0.546651 5:-1 
-0.2338299168462028 1:0.654264 2:0.616196 3:0.0908026 4:-0.927856 5:-0.20012 
0.5 1:0.654264 2:0.616196 3:0.0908026 4:0.551788 5:-0.571557 
-0.5 1:0.603101 2:0.560523 3:0.0908026 4:0.532702 5:-1 
-0.5 1:0.654264 2:0.616196 3:0.0908026 4:0.532702 5:-1 
-0.5 1:0.654264 2:0.616196 3:0.0908026 4:0.532428 5:-1 
0.5 1:0.654264 2:0.616196 3:0.0908026 4:0.532702 5:-1 
-0.5 1:0.524806 2:0.616196 3:0.0908026 4:0.532702 5:-0.39994 
-0.5 1:0.524806 2:0.616196 3:0.0908026 4:0.532702 5:-0.39994 
-0.5 1:0.524806 2:0.616196 3:0.0908026 4:0.532702 5:-1 
0.5 1:0.615504 2:0.714888 3:0.0908026 4:0.532702 5:-1 
0.5 1:0.503101 2:0.616196 3:-0.805507 4:0.331635 5:-1 
0.5 1:0.503101 2:0.616196 3:0.0908026 4:-0.409885 5:-0.249925 
0.5 1:0.644186 2:0.769717 3:0.0908026 4:0.525135 5:-1 
0.5 1:0.7 2:0.616196 3:-0.507909 4:0.517496 5:-1 
-0.5 1:0.7 2:0.616196 3:0.0908026 4:0.511333 5:-0.454545 
-0.5 1:0.569767 2:0.599325 3:0.0908026 4:0.562895 5:-1 
-0.5 1:0.585271 2:0.616196 3:-0.278266 4:0.468757 5:-1 
0.5 1:0.500775 2:0.616196 3:0.0908026 4:0.481632 5:0.00030003 
0.5 1:0.500775 2:0.616196 3:0.0908026 4:0.517563 5:-1 
0.5 1:0.500775 2:0.616196 3:0.0908026 4:0.516151 5:-1 
-0.5 1:0.500775 2:0.616196 3:-0.24546 4:0.381724 5:-1 
-0.09094672182477148 1:0.500775 2:0.616196 3:-0.867604 4:-0.0662797 5:-1 
0.5 1:0.426357 2:0.616196 3:0.0908026 4:0.532702 5:-1 
0.5 1:0.426357 2:0.616196 3:0.0908026 4:0.532702 5:-1 
0.5 1:0.426357 2:0.616196 3:0.0908026 4:0.532702 5:-0.69997 
0.5 1:0.426357 2:0.616196 3:0.0908026 4:0.532702 5:-0.69997 
-0.5 1:0.426357 2:0.616196 3:0.0908026 4:0.532702 5:-1 
0.5 1:0.426357 2:0.616196 3:0.0908026 4:0.532702 5:-0.69997 
0.5 1:0.572868 2:0.624631 3:0.0908026 4:0.532702 5:-1 
0.5 1:0.565116 2:0.616196 3:0.0908026 4:0.532702 5:-1 
0.5 1:0.565116 2:0.616196 3:-0.308729 4:0.532702 5:-1 
-0.5 1:0.60155 2:0.477014 3:0.0908026 4:0.564468 5:-1 
0.5 1:0.729457 2:0.616196 3:0.0908026 4:0.556322 5:-0.0525053 
-0.5 1:0.729457 2:0.616196 3:0.0908026 4:0.508472 5:-0.333333 
0.5 1:0.65814 2:0.616196 3:0.0908026 4:0.543466 5:-1 
-0.5 1:0.65814 2:0.616196 3:0.0908026 4:0.537883 5:-1 
0.5 1:0.668217 2:0.627162 3:0.0908026 4:0.455247 5:-1 
-0.5 1:0.65814 2:0.616196 3:0.0908026 4:0.538208 5:-0.714371 
-0.5 1:0.65814 2:0.616196 3:0.0908026 4:0.538882 5:-1 
0.1477758657881789 1:0.65814 2:0.616196 3:0.0908026 4:0.507175 5:-0.714371 
0.5 1:0.65814 2:0.616196 3:0.0908026 4:0.559501 5:-1 
-0.5 1:0.65814 2:0.616196 3:0.0908026 4:0.580281 5:-1 
0.5 1:0.383721 2:0.508224 3:0.0908026 4:0.473951 5:-1 
-0.5 1:0.644961 2:0.616196 3:0.0908026 4:0.621292 5:-1 
-0.0947449725516232 1:0.644961 2:0.616196 3:0.0908026 4:0.576996 5:0.20012 
0.5 1:0.644961 2:0.616196 3:0.0908026 4:0.548719 5:-1 
0.5 1:0.644961 2:0.616196 3:0.0908026 4:0.501225 5:0.20012 
-0.158757505889474 1:0.027907 2:-0.0552509 3:0.0908026 4:-0.316098 5:-1 
0.5 1:0.541085 2:0.503163 3:0.0908026 4:0.437048 5:-1 
-0.5 1:0.644961 2:0.616196 3:0.0908026 4:0.532702 5:-1 
-0.5 1:0.554264 2:0.616196 3:0.0908026 4:0.580377 5:-1 
0.5 1:0.442636 2:0.494728 3:0.0908026 4:0.594239 5:-1 
0.5 1:0.554264 2:0.616196 3:-0.455185 4:0.202045 5:-1 
-0.5 1:0.650388 2:0.616196 3:0.0908026 4:0.529236 5:-1 
-0.5 1:0.621705 2:0.584985 3:0.0908026 4:0.539645 5:-1 
-0.5 1:0.75969 2:0.735133 3:0.0908026 4:0.620233 5:-1 
-0.5 1:0.650388 2:0.616196 3:0.0908026 4:0.524847 5:-1 
-0.5 1:0.650388 2:0.616196 3:0.0908026 4:0.482917 5:-1 
-0.5 1:0.650388 2:0.616196 3:0.0908026 4:0.551861 5:-1 
-0.5 1:0.634109 2:0.616196 3:0.0908026 4:0.592065 5:-1 
-0.5 1:0.634109 2:0.616196 3:0.0908026 4:0.563122 5:-1 
-0.5 1:0.690698 2:0.677773 3:0.0908026 4:0.509709 5:-1 
-0.5 1:0.634109 2:0.616196 3:0.0908026 4:0.444285 5:-1 
-0.5 1:0.634109 2:0.616196 3:0.0908026 4:0.651775 5:-1 
-0.5 1:0.634109 2:0.616196 3:0.0908026 4:0.422146 5:-0.142514 
-0.5 1:0.634109 2:0.616196 3:-0.207967 4:0.546306 5:-1 
-0.5 1:0.634109 2:0.616196 3:0.0908026 4:0.357309 5:-1 
-0.5 1:0.634109 2:0.616196 3:0.0908026 4:0.584188 5:-1 
-0.5 1:0.634109 2:0.616196 3:0.0908026 4:0.583865 5:-1 
-0.5 1:0.634109 2:0.616196 3:0.0908026 4:0.5113 5:-1 
-0.5 1:0.634109 2:0.616196 3:0.0908026 4:0.514143 5:-1 
-0.5 1:0.775969 2:0.616196 3:0.455185 4:0.862796 5:-1 
0.5 1:0.748062 2:0.616196 3:0.0228471 4:0.483927 5:-1 
-0.5 1:0.0697674 2:-0.121889 3:0.0908026 4:-0.0232157 5:-1 
-0.5 1:0.946512 2:0.616196 3:0.0908026 4:0.541202 5:-1 
0.5 1:0.946512 2:0.616196 3:0.0908026 4:0.544475 5:-1 
-0.5 1:0.946512 2:0.616196 3:0.0908026 4:0.545327 5:-1 
0.5 1:0.889922 2:0.554618 3:0.0908026 4:0.468667 5:-1 
-0.5 1:0.330233 2:-0.0544074 3:0.0908026 4:0.498806 5:-1 
-0.5 1:0.321705 2:-0.0636862 3:0.0908026 4:0.506411 5:-1 
-0.5 1:0.946512 2:0.616196 3:0.0908026 4:0.531328 5:-1 
-0.5 1:0.946512 2:0.616196 3:0.0908026 4:0.534261 5:-0.59976 
-0.5 1:0.946512 2:0.616196 3:0.0908026 4:0.523987 5:-0.249925 
-0.5 1:0.946512 2:0.616196 3:-0.591095 4:0.51457 5:-1 
-0.5 1:0.946512 2:0.616196 3:0.0908026 4:0.516157 5:-1 
-0.5 1:0.946512 2:0.616196 3:0.0908026 4:0.521797 5:-1 
-0.5 1:0.655039 2:0.616196 3:0.0908026 4:0.546616 5:-1 
0.5 1:0.736434 2:0.704766 3:0.0908026 4:0.543296 5:-1 
-0.5 1:0.655039 2:0.616196 3:0.0908026 4:0.331629 5:-0.50015 
-0.5 1:0.655039 2:0.616196 3:-0.156415 4:0.331112 5:-1 
-0.5 1:0.60155 2:0.616196 3:0.0908026 4:0.486415 5:-1 
0.5 1:0.60155 2:0.616196 3:0.0908026 4:0.46379 5:-1 
-0.5 1:0.60155 2:0.616196 3:0.0908026 4:0.568005 5:-1 
-0.5 1:0.60155 2:0.616196 3:-1 4:0.435481 5:-1 
-0.5 1:0.60155 2:0.616196 3:0.0908026 4:0.537272 5:-1 
-0.5 1:0.60155 2:0.616196 3:0.0908026 4:0.5278 5:-1 
0.5 1:0.60155 2:0.616196 3:0.0908026 4:0.561383 5:-1 
-0.5 1:0.60155 2:0.616196 3:0.0908026 4:0.48682 5:-0.538554 
0.5 1:0.60155 2:0.616196 3:0.0908026 4:0.563373 5:-1 
0.5 1:0.60155 2:0.616196 3:0.0908026 4:0.539651 5:-1 
-0.5 1:0.590698 2:0.604386 3:0.0908026 4:0.495355 5:-1 
0.5 1:0.431008 2:0.804302 3:0.0908026 4:0.532702 5:-1 
-0.5 1:0.25814 2:0.616196 3:0.0908026 4:0.532702 5:-1 
0.5 1:0.25814 2:0.616196 3:0.0908026 4:0.532702 5:0.125113 
0.5 1:0.25814 2:0.616196 3:0.0908026 4:0.532702 5:-1 
-0.5 1:0.25814 2:0.616196 3:0.0908026 4:0.532702 5:-1 
0.5 1:0.25814 2:0.616196 3:0.0908026 4:0.532702 5:-1 
-0.5 1:0.25814 2:0.616196 3:0.0908026 4:0.532702 5:-0.571557 
0.5 1:0.25814 2:0.616196 3:0.0908026 4:0.532702 5:-1 
0.5 1:0.25814 2:0.616196 3:0.0908026 4:0.532702 5:-1 
-0.5 1:0.811628 2:0.616196 3:0.0908026 4:0.473594 5:-1 
-0.5 1:0.689922 2:0.616196 3:0.0908026 4:0.529451 5:0.00030003 
0.5 1:0.618605 2:0.616196 3:0.0908026 4:0.531425 5:-1 
0.5 1:0.618605 2:0.616196 3:0.0908026 4:0.531978 5:-1 
0.5 1:0.618605 2:0.616196 3:0.0908026 4:0.533341 5:-1 
0.5 1:0.618605 2:0.616196 3:0.361453 4:0.54085 5:-1 
0.5 1:0.618605 2:0.616196 3:0.0908026 4:0.531402 5:0.00030003 
0.5 1:0.618605 2:0.616196 3:0.0908026 4:0.538374 5:-1 
0.5 1:0.618605 2:0.616196 3:0.0908026 4:0.534244 5:-1 
0.5 1:0.618605 2:0.616196 3:0.0908026 4:0.534156 5:-1 
0.5 1:0.618605 2:0.616196 3:0.0908026 4:0.535368 5:-1 
0.5 1:0.516279 2:0.50485 3:0.0908026 4:0.516588 5:-1 
