svm_type epsilon_svr
kernel_type rbf
gamma 0.5
nr_class 2
total_sv 586
rho -0.00338072
SV
2 1:-0.514729 2:0.616196 3:0.0908026 4:0.532702 5:-1 6:0.0280122 
2 1:-0.553488 2:0.574019 3:0.0908026 4:0.532702 5:-1 6:0.0280122 
-2 1:-0.45969 2:0.676086 3:0.0908026 4:0.532702 5:-1 6:0.0280122 
-2 1:-0.514729 2:0.616196 3:0.0908026 4:0.532702 5:-1 6:0.0280122 
2 1:-0.514729 2:0.616196 3:0.0908026 4:0.532702 5:-1 6:0.0280122 
2 1:-0.514729 2:0.616196 3:0.0908026 4:0.532702 5:-0.538554 6:0.0280122 
-0.3398434284825439 1:-0.514729 2:0.616196 3:0.0908026 4:0.532702 5:-0.538554 6:0.0280122 
-2 1:0.434884 2:0.719949 3:0.0908026 4:0.534469 5:-1 6:0.653858 
-2 1:0.339535 2:0.616196 3:0.0908026 4:0.486871 5:-1 6:0.653858 
-2 1:0.339535 2:0.616196 3:0.0908026 4:0.548159 5:-1 6:0.653858 
-2 1:0.339535 2:0.616196 3:0.0908026 4:0.48314 5:0.20012 6:0.653858 
-2 1:0.339535 2:0.616196 3:0.0908026 4:0.515225 5:-1 6:0.653858 
-2 1:0.339535 2:0.616196 3:0.0908026 4:0.525936 5:-1 6:0.653858 
2 1:0.713178 2:0.616196 3:-0.579379 4:0.249032 5:-1 6:0.863152 
2 1:0.585271 2:0.477014 3:0.0908026 4:0.488882 5:-1 6:0.863152 
2 1:0.485271 2:0.616196 3:0.0908026 4:0.524067 5:-1 6:-0.889288 
-2 1:0.485271 2:0.616196 3:0.0908026 4:0.529847 5:-0.50015 6:-0.889288 
2 1:0.485271 2:0.616196 3:0.0908026 4:0.564758 5:-0.0771077 6:-0.889288 
-0.1366704928211278 1:0.485271 2:0.616196 3:0.0908026 4:0.513088 5:-1 6:-0.889288 
2 1:0.566667 2:0.704766 3:0.0908026 4:0.545039 5:-1 6:-0.889288 
2 1:0.796124 2:0.616196 3:0.0908026 4:0.531087 5:-1 6:-0.955318 
2 1:0.389922 2:0.616196 3:0.0908026 4:0.528952 5:-1 6:0.286591 
-2 1:0.389922 2:0.616196 3:0.0908026 4:0.535478 5:-1 6:0.286591 
2 1:0.446512 2:0.677773 3:0.0908026 4:0.531884 5:-1 6:0.286591 
-2 1:0.389922 2:0.616196 3:0.0908026 4:0.529189 5:-1 6:0.286591 
2 1:0.423256 2:0.652467 3:0.0908026 4:0.532446 5:-1 6:0.286591 
2 1:0.403876 2:0.631379 3:0.0908026 4:0.532052 5:-1 6:0.286591 
-2 1:0.115504 2:0.317588 3:0.0908026 4:0.533639 5:-1 6:0.286591 
0.3901234170681597 1:-0.288372 2:-0.121889 3:0.0908026 4:0.533255 5:-1 6:0.286591 
2 1:0.420155 2:0.649093 3:0.0908026 4:0.534003 5:-1 6:0.286591 
2 1:0.389922 2:0.616196 3:0.0908026 4:0.528398 5:-0.624962 6:0.286591 
2 1:0.389922 2:0.616196 3:0.0908026 4:0.535973 5:-1 6:0.286591 
-2 1:0.389922 2:0.616196 3:0.0908026 4:0.535431 5:-0.624962 6:0.286591 
2 1:0.389922 2:0.616196 3:0.0908026 4:0.533088 5:-0.624962 6:0.286591 
2 1:0.389922 2:0.616196 3:0.0908026 4:0.533172 5:-0.624962 6:0.286591 
-2 1:0.389922 2:0.616196 3:0.0908026 4:0.53771 5:-0.294329 6:0.286591 
-2 1:0.389922 2:0.616196 3:0.0908026 4:0.534518 5:-0.624962 6:0.286591 
-2 1:0.389922 2:0.616196 3:0.0908026 4:0.52745 5:-0.624962 6:0.286591 
2 1:0.389922 2:0.616196 3:0.0908026 4:0.532702 5:-1 6:0.286591 
2 1:0.389922 2:0.616196 3:0.0908026 4:0.532702 5:-0.624962 6:0.286591 
2 1:0.389922 2:0.616196 3:0.0908026 4:0.532702 5:-0.624962 6:0.286591 
-2 1:0.389922 2:0.616196 3:0.0908026 4:0.532702 5:-1 6:0.286591 
2 1:0.389922 2:0.616196 3:0.0908026 4:0.532702 5:-1 6:0.286591 
-1.438225500981214 1:0.389922 2:0.616196 3:-0.710603 4:0.532702 5:-1 6:0.286591 
2 1:0.389922 2:0.616196 3:0.0908026 4:0.532702 5:-1 6:0.286591 
-2 1:0.389922 2:0.616196 3:0.0908026 4:0.532702 5:-1 6:0.286591 
2 1:0.52093 2:0.616196 3:0.0908026 4:0.532702 5:-1 6:0.718165 
2 1:0.41938 2:0.505694 3:0.0908026 4:0.532702 5:-1 6:0.718165 
2 1:0.52093 2:0.616196 3:0.0908026 4:0.532702 5:-0.59976 6:0.718165 
2 1:0.52093 2:0.616196 3:0.0908026 4:0.532702 5:-0.59976 6:0.718165 
2 1:0.363566 2:0.541122 3:0.0908026 4:0.491109 5:-1 6:0.825988 
2 1:0.432558 2:0.616196 3:0.0908026 4:0.402263 5:-0.571557 6:0.825988 
2 1:0.432558 2:0.616196 3:0.0908026 4:0.415681 5:-0.571557 6:0.825988 
2 1:0.432558 2:0.616196 3:0.0908026 4:0.448682 5:-0.20012 6:0.825988 
2 1:0.432558 2:0.616196 3:0.0908026 4:0.398898 5:-0.20012 6:0.825988 
1.810454037426777 1:0.432558 2:0.616196 3:0.0908026 4:0.382588 5:-1 6:0.825988 
-2 1:0.432558 2:0.616196 3:-0.721148 4:0.168468 5:-0.571557 6:0.825988 
-2 1:0.432558 2:0.616196 3:-0.818395 4:0.0899081 5:-1 6:0.825988 
2 1:0.432558 2:0.616196 3:-0.320445 4:0.571783 5:-1 6:0.825988 
2 1:0.432558 2:0.616196 3:-0.1529 4:0.559074 5:-1 6:0.825988 
-2 1:0.572868 2:0.616196 3:0.0908026 4:0.525282 5:-1 6:0.431401 
-2 1:0.572868 2:0.616196 3:0.0908026 4:0.532702 5:-1 6:0.431401 
-2 1:0.572868 2:0.616196 3:0.0908026 4:0.544642 5:-1 6:0.431401 
-2 1:0.572868 2:0.616196 3:0.0908026 4:0.532702 5:-1 6:0.431401 
-2 1:0.572868 2:0.616196 3:0.0908026 4:0.530323 5:-1 6:0.431401 
-2 1:0.565116 2:0.60776 3:0.0908026 4:0.530019 5:-1 6:0.431401 
-2 1:0.572868 2:0.616196 3:0.0908026 4:0.522904 5:-0.571557 6:0.431401 
-2 1:0.572868 2:0.616196 3:0.0908026 4:0.532702 5:-1 6:0.431401 
-2 1:0.572868 2:0.616196 3:0.0908026 4:0.542123 5:-0.20012 6:0.431401 
-2 1:0.572868 2:0.616196 3:0.0908026 4:0.541447 5:-1 6:0.431401 
-2 1:0.572868 2:0.616196 3:0.0908026 4:0.532702 5:-0.20012 6:0.431401 
-2 1:0.572868 2:0.616196 3:0.0908026 4:0.556275 5:-0.571557 6:0.431401 
-2 1:0.572868 2:0.616196 3:0.0908026 4:0.526337 5:-1 6:0.431401 
-2 1:0.572868 2:0.616196 3:0.0908026 4:0.51564 5:-1 6:0.431401 
-2 1:0.572868 2:0.616196 3:0.0908026 4:0.519594 5:-1 6:0.431401 
-2 1:0.572868 2:0.616196 3:0.0908026 4:0.54245 5:-1 6:0.431401 
-2 1:0.572868 2:0.616196 3:0.0908026 4:0.488567 5:-1 6:0.431401 
-2 1:0.572868 2:0.616196 3:0.0908026 4:0.532168 5:-1 6:0.431401 
-2 1:0.572868 2:0.616196 3:0.0908026 4:0.531349 5:-1 6:0.431401 
-2 1:0.34186 2:0.616196 3:0.0908026 4:0.533339 5:-1 6:-0.132522 
-2 1:0.34186 2:0.616196 3:0.0908026 4:0.532979 5:-1 6:-0.132522 
2 1:0.34186 2:0.616196 3:0.0908026 4:0.531347 5:-1 6:-0.132522 
2 1:0.516279 2:0.616196 3:0.0908026 4:0.541502 5:-1 6:0.403883 
-2 1:0.516279 2:0.616196 3:0.0908026 4:0.585255 5:-1 6:0.403883 
2 1:0.516279 2:0.616196 3:0.0908026 4:0.539624 5:-1 6:0.403883 
-2 1:0.516279 2:0.616196 3:0.0908026 4:0.473404 5:-1 6:0.403883 
-2 1:0.412403 2:0.503163 3:0.0908026 4:0.468185 5:-1 6:0.403883 
2 1:0.565891 2:0.670181 3:0.0908026 4:0.59035 5:-1 6:0.403883 
2 1:0.548837 2:0.651624 3:0.0908026 4:0.617602 5:-1 6:0.403883 
-2 1:0.516279 2:0.616196 3:0.0908026 4:0.571086 5:-1 6:0.403883 
2 1:0.516279 2:0.616196 3:0.0908026 4:0.671609 5:-1 6:0.403883 
-2 1:0.516279 2:0.616196 3:0.0908026 4:0.483755 5:-1 6:0.403883 
2 1:0.516279 2:0.616196 3:0.0908026 4:0.435033 5:-1 6:0.403883 
1.445132914316746 1:0.516279 2:0.616196 3:0.0908026 4:0.479384 5:-1 6:0.403883 
2 1:0.516279 2:0.616196 3:0.0908026 4:0.673148 5:-1 6:0.403883 
2 1:0.516279 2:0.616196 3:0.0908026 4:0.494468 5:-1 6:0.403883 
-2 1:0.703876 2:0.616196 3:0.0908026 4:0.524704 5:-1 6:0.623143 
-2 1:0.703876 2:0.616196 3:-0.294669 4:0.0748553 5:-1 6:0.623143 
-2 1:0.613953 2:0.616196 3:-0.000585823 4:0.496008 5:-1 6:0.567432 
2 1:0.613953 2:0.616196 3:0.0908026 4:0.588248 5:-1 6:0.567432 
2 1:0.613953 2:0.616196 3:0.0908026 4:0.565243 5:0.50015 6:0.567432 
1.43956272596727 1:0.613953 2:0.616196 3:0.0908026 4:0.547671 5:0.50015 6:0.567432 
2 1:-0.0643411 2:-0.121889 3:0.0908026 4:0.12855 5:-1 6:0.567432 
2 1:0.546512 2:0.542809 3:0.0908026 4:0.50356 5:-1 6:0.567432 
2 1:0.44031 2:0.616196 3:0.0908026 4:0.41516 5:-1 6:0.647799 
2 1:0.44031 2:0.616196 3:0.0908026 4:0.475126 5:-1 6:0.647799 
2 1:0.44031 2:0.616196 3:0.0908026 4:-0.720288 5:-1 6:0.647799 
2 1:0.44031 2:0.616196 3:-0.175161 4:0.450681 5:-1 6:0.647799 
2 1:0.662016 2:0.616196 3:0.0908026 4:0.544318 5:-1 6:0.615745 
2 1:0.662016 2:0.616196 3:0.0908026 4:0.575271 5:-1 6:0.615745 
2 1:0.393023 2:0.616196 3:0.0908026 4:0.532702 5:-1 6:-0.937698 
-0.517434634166999 1:-0.0891473 2:0.616196 3:0.0908026 4:0.556732 5:-0.294329 6:-0.934455 
-1.263087841705185 1:-0.0891473 2:0.616196 3:0.0908026 4:0.594884 5:-0.624962 6:-0.934455 
-2 1:0.328682 2:0.616196 3:0.0908026 4:0.530072 5:-1 6:-0.257852 
2 1:0.328682 2:0.616196 3:0.0908026 4:0.539953 5:-1 6:-0.257852 
-2 1:0.264341 2:0.546183 3:0.0908026 4:0.531841 5:-1 6:-0.257852 
-2 1:0.328682 2:0.616196 3:0.0908026 4:0.53509 5:-1 6:-0.257852 
2 1:0.328682 2:0.616196 3:0.0908026 4:0.535094 5:-0.571557 6:-0.257852 
2 1:0.328682 2:0.616196 3:0.0908026 4:0.529009 5:-0.20012 6:-0.257852 
-2 1:0.328682 2:0.616196 3:0.0908026 4:0.532411 5:-0.20012 6:-0.257852 
-2 1:0.328682 2:0.616196 3:0.0908026 4:0.533447 5:-1 6:-0.257852 
-2 1:0.36124 2:0.616196 3:0.0908026 4:0.545744 5:-1 6:0.779585 
2 1:0.36124 2:0.616196 3:0.0908026 4:0.623554 5:-1 6:0.779585 
-2 1:0.36124 2:0.616196 3:0.0908026 4:0.513818 5:-1 6:0.779585 
2 1:0.249612 2:0.616196 3:0.0908026 4:0.582923 5:-0.50015 6:-0.875015 
2 1:0.249612 2:0.616196 3:0.0908026 4:0.686229 5:-0.50015 6:-0.875015 
2 1:0.249612 2:0.616196 3:0.0908026 4:0.442798 5:-1 6:-0.875015 
-2 1:0.754264 2:0.616196 3:0.0908026 4:0.533098 5:-1 6:0.615677 
-1.348075264060612 1:0.754264 2:0.616196 3:0.0908026 4:0.531024 5:-1 6:0.615677 
-2 1:0.754264 2:0.616196 3:0.0908026 4:0.530617 5:-1 6:0.615677 
-2 1:0.754264 2:0.616196 3:0.0908026 4:0.529684 5:-1 6:0.615677 
-2 1:0.754264 2:0.616196 3:0.0908026 4:0.530025 5:-1 6:0.615677 
2 1:0.754264 2:0.616196 3:0.0908026 4:0.529575 5:-0.571557 6:0.615677 
-2 1:0.754264 2:0.616196 3:0.0908026 4:0.529551 5:-1 6:0.615677 
-2 1:0.754264 2:0.616196 3:0.0908026 4:0.537334 5:-1 6:0.615677 
-2 1:0.754264 2:0.616196 3:0.0908026 4:0.531192 5:-1 6:0.615677 
0.1597624663678601 1:0.754264 2:0.616196 3:-0.241945 4:0.529763 5:-1 6:0.615677 
0.1305916203357674 1:0.747287 2:0.616196 3:-0.954306 4:0.36917 5:-1 6:0.880416 
2 1:0.220155 2:0.616196 3:0.0908026 4:0.483424 5:-1 6:-0.156883 
2 1:0.220155 2:0.616196 3:0.0908026 4:0.43545 5:-1 6:-0.156883 
-2 1:0.220155 2:0.616196 3:0.0908026 4:0.440107 5:-1 6:-0.156883 
-2 1:0.220155 2:0.616196 3:0.0908026 4:0.753522 5:-1 6:-0.156883 
-2 1:0.293798 2:0.696331 3:0.0908026 4:0.482627 5:-1 6:-0.156883 
2 1:0.220155 2:0.616196 3:0.0908026 4:0.532702 5:-1 6:-0.156883 
2 1:0.220155 2:0.616196 3:0.0908026 4:0.566309 5:-1 6:-0.156883 
2 1:0.220155 2:0.616196 3:0.0908026 4:0.619878 5:-1 6:-0.156883 
2 1:0.220155 2:0.616196 3:0.0908026 4:0.472202 5:-0.0771077 6:-0.156883 
-2 1:0.220155 2:0.616196 3:0.0908026 4:0.441085 5:-0.0771077 6:-0.156883 
-2 1:0.220155 2:0.616196 3:0.0908026 4:0.487578 5:-1 6:-0.156883 
-2 1:0.220155 2:0.616196 3:0.0908026 4:0.468461 5:-1 6:-0.156883 
-2 1:0.220155 2:0.616196 3:0.0908026 4:0.508515 5:-0.50015 6:-0.156883 
2 1:0.220155 2:0.616196 3:0.0908026 4:0.561559 5:-1 6:-0.156883 
2 1:0.220155 2:0.616196 3:0.0908026 4:0.523423 5:-1 6:-0.156883 
2 1:0.220155 2:0.616196 3:0.0908026 4:0.527381 5:-1 6:-0.156883 
2 1:0.220155 2:0.616196 3:0.0908026 4:0.536042 5:-1 6:-0.156883 
2 1:0.379845 2:0.616196 3:0.0908026 4:0.532702 5:-0.249925 6:0.54681 
-2 1:0.379845 2:0.616196 3:0.0908026 4:0.532702 5:-1 6:0.54681 
-2 1:0.76124 2:0.616196 3:0.0908026 4:0.514488 5:-1 6:-0.687607 
2 1:0.76124 2:0.616196 3:0.0908026 4:0.517716 5:-1 6:-0.687607 
-2 1:0.76124 2:0.616196 3:0.147042 4:0.472997 5:-1 6:-0.687607 
2 1:0.76124 2:0.616196 3:0.0908026 4:0.551769 5:-1 6:-0.687607 
-2 1:0.76124 2:0.616196 3:0.0908026 4:0.523078 5:-0.249925 6:-0.687607 
-2 1:0.76124 2:0.616196 3:0.0908026 4:0.600258 5:0.0591059 6:-0.687607 
2 1:0.76124 2:0.616196 3:0.0908026 4:0.674266 5:-0.59976 6:-0.687607 
-1.378592259411354 1:0.76124 2:0.616196 3:0.0908026 4:0.51306 5:-0.249925 6:-0.687607 
-2 1:0.795349 2:0.653311 3:0.0908026 4:0.473379 5:-1 6:-0.687607 
2 1:0.804651 2:0.663433 3:0.0908026 4:0.572135 5:-1 6:-0.687607 
-2 1:0.76124 2:0.616196 3:0.0908026 4:0.532702 5:-1 6:-0.687607 
-2 1:0.76124 2:0.616196 3:0.0908026 4:0.661452 5:-1 6:-0.687607 
-2 1:0.76124 2:0.616196 3:0.0908026 4:0.658561 5:-1 6:-0.687607 
-2 1:0.495349 2:0.616196 3:0.0908026 4:0.532702 5:-1 6:0.505752 
-2 1:0.495349 2:0.616196 3:0.0908026 4:0.532702 5:-1 6:0.505752 
-2 1:0.495349 2:0.616196 3:0.0908026 4:0.532702 5:-1 6:0.505752 
-2 1:0.495349 2:0.616196 3:0.0908026 4:0.532702 5:-0.50015 6:0.505752 
2 1:0.848837 2:0.616196 3:0.0908026 4:0.529688 5:-1 6:0.759575 
2 1:0.742636 2:0.500633 3:0.0908026 4:0.53026 5:-1 6:0.759575 
-2 1:0.816279 2:0.580768 3:0.0908026 4:0.521519 5:-1 6:0.759575 
2 1:0.848837 2:0.616196 3:0.0908026 4:0.535194 5:-1 6:0.759575 
-2 1:0.848837 2:0.616196 3:0.0908026 4:0.512181 5:-0.454545 6:0.759575 
2 1:0.848837 2:0.616196 3:-0.0603398 4:0.540352 5:-1 6:0.759575 
-2 1:0.789147 2:0.616196 3:0.0908026 4:0.531181 5:-1 6:0.144433 
-2 1:0.789147 2:0.616196 3:0.0908026 4:0.71205 5:-1 6:0.144433 
-2 1:0.789147 2:0.616196 3:0.0908026 4:0.666779 5:-1 6:0.144433 
-2 1:0.789147 2:0.616196 3:0.0908026 4:0.580492 5:-0.768977 6:0.144433 
2 1:0.789147 2:0.616196 3:0.0908026 4:0.351247 5:-0.768977 6:0.144433 
2 1:0.789147 2:0.616196 3:0.0908026 4:0.430293 5:-0.768977 6:0.144433 
2 1:0.789147 2:0.616196 3:0.0908026 4:0.490855 5:-0.555356 6:0.144433 
2 1:0.789147 2:0.616196 3:0.0908026 4:0.595818 5:-1 6:0.144433 
2 1:0.789147 2:0.616196 3:0.0908026 4:0.555474 5:-1 6:0.144433 
2 1:0.789147 2:0.616196 3:0.0908026 4:0.553198 5:-1 6:0.144433 
2 1:0.789147 2:0.616196 3:0.0908026 4:0.465764 5:-1 6:0.144433 
2 1:0.789147 2:0.616196 3:0.0908026 4:0.572983 5:-0.768977 6:0.144433 
2 1:0.789147 2:0.616196 3:0.0908026 4:0.620342 5:-0.768977 6:0.144433 
2 1:0.789147 2:0.616196 3:0.0908026 4:0.562809 5:-0.357336 6:0.144433 
2 1:0.789147 2:0.616196 3:0.0908026 4:0.441208 5:-0.357336 6:0.144433 
2 1:0.789147 2:0.616196 3:0.0908026 4:0.560026 5:-0.768977 6:0.144433 
2 1:0.789147 2:0.616196 3:0.0908026 4:0.603066 5:-1 6:0.144433 
-2 1:0.789147 2:0.616196 3:0.0908026 4:0.563383 5:-0.768977 6:0.144433 
2 1:0.789147 2:0.616196 3:0.0908026 4:0.591004 5:-1 6:0.144433 
2 1:0.789147 2:0.616196 3:0.0908026 4:0.580461 5:-1 6:0.144433 
-2 1:0.789147 2:0.616196 3:0.0908026 4:0.508993 5:-1 6:0.144433 
2 1:0.789147 2:0.616196 3:0.0908026 4:0.607731 5:-0.555356 6:0.144433 
2 1:0.789147 2:0.616196 3:0.0908026 4:0.569217 5:-0.555356 6:0.144433 
-2 1:0.789147 2:0.616196 3:-0.539543 4:0.411251 5:-1 6:0.144433 
2 1:0.789147 2:0.616196 3:-0.446983 4:0.532702 5:-1 6:0.144433 
0.07430267856795002 1:0.789147 2:0.616196 3:0.0908026 4:0.512959 5:-1 6:0.144433 
2 1:0.843411 2:0.63644 3:0.0908026 4:0.617316 5:-1 6:0.755397 
2 1:0.824806 2:0.616196 3:0.0908026 4:0.432416 5:-0.279928 6:0.755397 
1.090105239371515 1:0.824806 2:0.616196 3:0.0908026 4:0.447493 5:-0.738974 6:0.755397 
2 1:0.824806 2:0.616196 3:0.0908026 4:0.166621 5:-0.738974 6:0.755397 
2 1:0.824806 2:0.616196 3:0.0908026 4:0.463813 5:-1 6:0.755397 
0.3328478987831947 1:0.824806 2:0.616196 3:0.0908026 4:-0.456422 5:-0.738974 6:0.755397 
2 1:0.824806 2:0.616196 3:0.0908026 4:0.583777 5:-0.738974 6:0.755397 
2 1:0.787597 2:0.616196 3:0.0908026 4:0.559021 5:-1 6:0.30945 
2 1:0.787597 2:0.616196 3:0.0908026 4:0.532702 5:-1 6:0.30945 
-2 1:0.787597 2:0.616196 3:0.0908026 4:0.525368 5:-1 6:0.30945 
2 1:0.787597 2:0.616196 3:0.0908026 4:0.521707 5:-1 6:0.30945 
2 1:0.815504 2:0.646563 3:0.0908026 4:0.534575 5:-1 6:0.30945 
2 1:0.75814 2:0.584142 3:0.0908026 4:0.438525 5:-1 6:0.30945 
-2 1:0.787597 2:0.616196 3:0.0908026 4:0.491595 5:-0.20012 6:0.30945 
2 1:0.787597 2:0.616196 3:0.0908026 4:0.545037 5:-0.571557 6:0.30945 
-2 1:0.787597 2:0.616196 3:0.0908026 4:0.492235 5:-1 6:0.30945 
-2 1:0.787597 2:0.616196 3:0.0908026 4:0.435289 5:-0.571557 6:0.30945 
-2 1:0.787597 2:0.616196 3:0.0908026 4:0.479601 5:-0.571557 6:0.30945 
2 1:0.787597 2:0.616196 3:0.0908026 4:0.505961 5:-1 6:0.30945 
-2 1:0.787597 2:0.616196 3:0.0908026 4:0.533149 5:-1 6:0.30945 
-2 1:0.109302 2:0.616196 3:0.0908026 4:0.688152 5:-1 6:0.612982 
-2 1:0.109302 2:0.616196 3:0.0908026 4:0.588959 5:-1 6:0.612982 
-2 1:0.109302 2:0.616196 3:0.0908026 4:0.568248 5:0.20012 6:0.612982 
-1.69029512429398 1:0.109302 2:0.616196 3:0.0908026 4:-0.245313 5:-0.333333 6:0.612982 
2 1:0.109302 2:0.616196 3:0.0908026 4:0.59325 5:-0.333333 6:0.612982 
-2 1:0.109302 2:0.616196 3:0.0908026 4:0.388688 5:-0.333333 6:0.612982 
2 1:0.109302 2:0.616196 3:0.0908026 4:0.511556 5:-0.333333 6:0.612982 
-2 1:0.109302 2:0.616196 3:0.0908026 4:0.588648 5:-0.333333 6:0.612982 
-2 1:0.0906977 2:0.595951 3:0.0908026 4:0.507193 5:-1 6:0.612982 
-2 1:0.109302 2:0.616196 3:0.0908026 4:0.517577 5:-1 6:0.612982 
-2 1:0.572093 2:0.616196 3:0.106034 4:0.53639 5:-1 6:0.662609 
2 1:0.572093 2:0.616196 3:0.0451084 4:0.557858 5:-1 6:0.662609 
2 1:0.572093 2:0.616196 3:0.0908026 4:0.541721 5:-1 6:0.662609 
2 1:0.572093 2:0.616196 3:0.0908026 4:0.526868 5:-0.142514 6:0.662609 
2 1:0.572093 2:0.616196 3:0.0908026 4:0.532986 5:-1 6:0.662609 
2 1:0.572093 2:0.616196 3:0.0908026 4:0.496278 5:-1 6:0.662609 
2 1:0.572093 2:0.616196 3:0.0908026 4:0.527383 5:-1 6:0.662609 
-2 1:0.714729 2:0.653311 3:0.0908026 4:0.533447 5:-1 6:0.781761 
-2 1:0.731783 2:0.671868 3:0.0908026 4:0.519122 5:-1 6:0.781761 
-2 1:0.664341 2:0.598482 3:0.0908026 4:0.483739 5:-1 6:0.781761 
-2 1:0.68062 2:0.616196 3:0.0908026 4:0.530662 5:-0.249925 6:0.781761 
-2 1:0.68062 2:0.616196 3:0.0908026 4:0.560226 5:-1 6:0.781761 
-2 1:0.68062 2:0.616196 3:0.0908026 4:0.54537 5:-1 6:0.781761 
-2 1:0.714729 2:0.603543 3:0.0908026 4:0.496254 5:-1 6:0.445408 
-2 1:0.347287 2:0.604386 3:0.0908026 4:0.532702 5:-1 6:0.420043 
-2 1:0.35814 2:0.616196 3:0.0908026 4:0.532702 5:-0.59976 6:0.420043 
-2 1:0.534109 2:0.616196 3:0.0908026 4:0.519371 5:-1 6:0.758756 
2 1:0.534109 2:0.616196 3:-0.459871 4:0.532702 5:-1 6:0.758756 
-2 1:0.527907 2:0.616196 3:0.0908026 4:0.581791 5:-1 6:-0.211711 
-1.947826098003407 1:0.527907 2:0.616196 3:0.0908026 4:0.701594 5:-1 6:-0.211711 
-1.098283001233396 1:0.527907 2:0.616196 3:0.0908026 4:0.530264 5:-1 6:-0.211711 
-0.8767293595578081 1:0.24031 2:0.303248 3:0.0908026 4:0.488289 5:-1 6:-0.211711 
-2 1:0.418605 2:0.497259 3:0.0908026 4:0.497138 5:-1 6:-0.211711 
-2 1:0.527907 2:0.616196 3:0.0908026 4:0.51987 5:-0.59976 6:-0.211711 
-2 1:0.527907 2:0.616196 3:0.0908026 4:0.495878 5:-1 6:-0.211711 
-2 1:0.527907 2:0.616196 3:0.0908026 4:0.550186 5:-0.249925 6:-0.211711 
2 1:0.527907 2:0.616196 3:0.0908026 4:0.547217 5:-0.59976 6:-0.211711 
2 1:0.527907 2:0.616196 3:0.0908026 4:0.507361 5:-1 6:-0.211711 
-2 1:0.527907 2:0.616196 3:0.0908026 4:0.488888 5:-1 6:-0.211711 
-2 1:0.527907 2:0.616196 3:0.0908026 4:0.553126 5:-1 6:-0.211711 
-2 1:0.527907 2:0.616196 3:0.0908026 4:0.427134 5:-0.59976 6:-0.211711 
2 1:0.337209 2:0.616196 3:0.0908026 4:0.532702 5:-1 6:-0.855257 
2 1:0.337209 2:0.616196 3:0.0908026 4:0.532702 5:-1 6:-0.855257 
2 1:0.369767 2:0.616196 3:0.0908026 4:0.532702 5:-1 6:0.407626 
2 1:0.369767 2:0.616196 3:0.0908026 4:0.532702 5:-0.684368 6:0.407626 
2 1:0.369767 2:0.616196 3:0.0908026 4:0.532702 5:-0.684368 6:0.407626 
2 1:0.369767 2:0.616196 3:0.0908026 4:0.532702 5:-1 6:0.407626 
2 1:0.735659 2:0.616196 3:-0.209139 4:0.503137 5:-1 6:0.947792 
-2 1:0.735659 2:0.616196 3:-0.867604 4:0.476716 5:-1 6:0.947792 
0.636306195891692 1:0.744961 2:0.616196 3:-0.818395 4:0.364626 5:-1 6:-0.791274 
-0.9853575229634404 1:0.744961 2:0.616196 3:0.0908026 4:0.520932 5:-0.69997 6:-0.791274 
-1.24177639963771 1:0.744961 2:0.616196 3:0.0908026 4:0.547797 5:-1 6:-0.791274 
2 1:0.744961 2:0.616196 3:0.0908026 4:0.58333 5:-1 6:-0.791274 
-2 1:0.744961 2:0.616196 3:0.0908026 4:0.537303 5:-1 6:-0.791274 
2 1:0.729457 2:0.599325 3:0.0908026 4:0.514157 5:-1 6:-0.791274 
2 1:0.616279 2:0.616196 3:0.0908026 4:0.532702 5:-1 6:0.61432 
2 1:0.616279 2:0.616196 3:0.0908026 4:0.532702 5:-1 6:0.61432 
2 1:0.616279 2:0.616196 3:0.0908026 4:0.541896 5:-0.666367 6:0.61432 
-1.530325027458513 1:0.627132 2:0.616196 3:0.0908026 4:0.482184 5:-0.142514 6:0.751376 
-2 1:-0.110853 2:0.616196 3:0.0908026 4:0.527755 5:-1 6:-0.126626 
2 1:0.24186 2:1 3:0.0908026 4:0.55793 5:-1 6:-0.126626 
-2 1:-0.186822 2:0.53353 3:0.0908026 4:0.532702 5:-1 6:-0.126626 
-2 1:0.35814 2:0.497259 3:0.0908026 4:0.532702 5:-1 6:-0.402332 
-2 1:0.467442 2:0.616196 3:0.0908026 4:0.532702 5:-0.333333 6:-0.402332 
-2 1:0.454264 2:0.616196 3:0.0908026 4:0.532702 5:-1 6:0.470551 
2 1:0.454264 2:0.616196 3:0.0908026 4:0.532702 5:-1 6:0.470551 
-2 1:0.454264 2:0.616196 3:0.0908026 4:0.533897 5:-0.39994 6:0.470551 
-2 1:0.454264 2:0.616196 3:0.0908026 4:0.531596 5:-1 6:0.470551 
-2 1:0.454264 2:0.616196 3:0.0908026 4:0.534451 5:-0.39994 6:0.470551 
-2 1:0.255814 2:0.616196 3:0.0908026 4:0.538429 5:-1 6:0.156278 
-2 1:0.255814 2:0.616196 3:0.0908026 4:0.496278 5:-1 6:0.156278 
2 1:0.255814 2:0.616196 3:0.0908026 4:0.376692 5:-1 6:0.156278 
-2 1:0.255814 2:0.616196 3:0.0908026 4:0.682447 5:-0.142514 6:0.156278 
0.2655795189673168 1:0.255814 2:0.616196 3:-0.719977 4:0.275153 5:-0.142514 6:0.156278 
-2 1:0.604651 2:0.616196 3:0.0908026 4:0.506891 5:-1 6:0.707172 
2 1:0.604651 2:0.616196 3:0.0908026 4:0.521065 5:0.20012 6:0.707172 
2 1:0.604651 2:0.616196 3:0.0908026 4:0.575866 5:0.20012 6:0.707172 
2 1:0.604651 2:0.616196 3:0.0908026 4:0.521063 5:-1 6:0.707172 
-2 1:0.48062 2:0.616196 3:0.0908026 4:0.392484 5:0.00030003 6:0.321226 
-2 1:0.48062 2:0.616196 3:0.0908026 4:0.5826 5:0.714371 6:0.321226 
2 1:0.517054 2:0.616196 3:0.0908026 4:0.532452 5:-1 6:0.0550014 
-2 1:0.517054 2:0.616196 3:0.0908026 4:0.532281 5:-1 6:0.0550014 
-2 1:0.517054 2:0.616196 3:0.0908026 4:0.532802 5:-1 6:0.0550014 
-2 1:0.517054 2:0.616196 3:0.0908026 4:0.532702 5:-1 6:0.0550014 
2 1:0.517054 2:0.616196 3:0.0908026 4:0.533243 5:-1 6:0.0550014 
2 1:0.517054 2:0.616196 3:0.0908026 4:0.532326 5:-1 6:0.0550014 
2 1:0.517054 2:0.616196 3:0.0908026 4:0.533429 5:-1 6:0.0550014 
-2 1:0.517054 2:0.616196 3:0.0908026 4:0.533219 5:-1 6:0.0550014 
2 1:0.551938 2:0.654154 3:0.0908026 4:0.532505 5:-1 6:0.0550014 
-2 1:0.62093 2:0.729228 3:0.0908026 4:0.531941 5:-1 6:0.0550014 
2 1:0.479845 2:0.575706 3:0.0908026 4:0.534028 5:-1 6:0.0550014 
-2 1:0.517054 2:0.616196 3:0.0908026 4:0.530865 5:-1 6:0.0550014 
-2 1:0.517054 2:0.616196 3:0.0908026 4:0.533276 5:-1 6:0.0550014 
-2 1:0.517054 2:0.616196 3:0.0908026 4:0.533921 5:-1 6:0.0550014 
-2 1:0.517054 2:0.616196 3:0.0908026 4:0.530337 5:-1 6:0.0550014 
2 1:0.517054 2:0.616196 3:0.0908026 4:0.533435 5:-0.538554 6:0.0550014 
2 1:0.517054 2:0.616196 3:0.0908026 4:0.533719 5:-0.142514 6:0.0550014 
2 1:0.517054 2:0.616196 3:0.155243 4:0.525685 5:-1 6:0.0550014 
-2 1:0.393023 2:0.778153 3:0.0908026 4:0.532702 5:-1 6:-0.960885 
2 1:0.779845 2:0.616196 3:0.0908026 4:0.546532 5:-1 6:-0.734152 
2 1:0.779845 2:0.616196 3:0.0908026 4:0.78101 5:-1 6:-0.734152 
1.295285996341763 1:0.779845 2:0.616196 3:0.0908026 4:-0.797796 5:-0.726973 6:-0.734152 
2 1:0.779845 2:0.616196 3:0.0908026 4:0.588724 5:-0.726973 6:-0.734152 
-2 1:0.779845 2:0.616196 3:0.0908026 4:0.41421 5:-0.726973 6:-0.734152 
-2 1:0.779845 2:0.616196 3:0.0908026 4:0.739142 5:-1 6:-0.734152 
-0.7208000729350721 1:0.779845 2:0.616196 3:-0.313415 4:-0.771967 5:-0.726973 6:-0.734152 
-2 1:0.957364 2:0.616196 3:0.0908026 4:0.726817 5:-1 6:0.352795 
-2 1:0.645736 2:0.616196 3:0.0908026 4:0.532702 5:-1 6:-0.785888 
-2 1:0.629457 2:0.598482 3:0.0908026 4:0.532702 5:-1 6:-0.785888 
2 1:0.155814 2:0.0830873 3:0.0908026 4:0.532702 5:-1 6:-0.785888 
-2 1:0.645736 2:0.616196 3:0.0908026 4:0.532702 5:-1 6:-0.785888 
-2 1:0.645736 2:0.616196 3:0.0908026 4:0.532702 5:-1 6:-0.785888 
-2 1:0.645736 2:0.616196 3:0.0908026 4:0.532702 5:-1 6:-0.785888 
2 1:0.645736 2:0.616196 3:0.0908026 4:0.532702 5:-1 6:-0.785888 
1.309119262849986 1:0.645736 2:0.616196 3:0.436438 4:0.532702 5:-1 6:-0.785888 
2 1:0.645736 2:0.616196 3:0.0908026 4:0.532702 5:-1 6:-0.785888 
2 1:0.434109 2:0.616196 3:0.0908026 4:0.511668 5:-1 6:-0.186205 
2 1:0.434109 2:0.616196 3:0.0908026 4:0.459738 5:-1 6:-0.186205 
2 1:0.434109 2:0.616196 3:0.0908026 4:0.510475 5:-0.333333 6:-0.186205 
2 1:0.434109 2:0.616196 3:0.0908026 4:0.521492 5:-1 6:-0.186205 
2 1:0.434109 2:0.616196 3:0.0908026 4:0.507312 5:-1 6:-0.186205 
-2 1:0.434109 2:0.616196 3:0.0908026 4:0.571683 5:-1 6:-0.186205 
-2 1:0.593798 2:0.789962 3:0.0908026 4:0.521741 5:-1 6:-0.186205 
2 1:0.451163 2:0.634753 3:0.0908026 4:0.534947 5:-1 6:-0.186205 
-2 1:0.434109 2:0.616196 3:0.0908026 4:0.528946 5:-1 6:-0.186205 
2 1:0.434109 2:0.616196 3:0.0908026 4:0.532702 5:-1 6:-0.186205 
-2 1:0.434109 2:0.616196 3:0.0908026 4:0.587592 5:-1 6:-0.186205 
2 1:0.434109 2:0.616196 3:0.0908026 4:0.538862 5:-1 6:-0.186205 
2 1:0.472093 2:0.616196 3:0.0908026 4:0.541608 5:-1 6:0.0315544 
2 1:0.472093 2:0.616196 3:0.0908026 4:0.548163 5:-1 6:0.0315544 
-2 1:0.472093 2:0.616196 3:0.0908026 4:0.473747 5:-1 6:0.0315544 
-2 1:0.472093 2:0.616196 3:0.0908026 4:0.55046 5:-1 6:0.0315544 
2 1:0.472093 2:0.616196 3:0.0908026 4:0.522291 5:-1 6:0.0315544 
2 1:0.472093 2:0.616196 3:0.0908026 4:0.641788 5:-1 6:0.0315544 
-2 1:0.472093 2:0.616196 3:0.0908026 4:0.469691 5:-1 6:0.0315544 
2 1:0.472093 2:0.616196 3:0.0908026 4:0.586415 5:-1 6:0.0315544 
2 1:0.472093 2:0.616196 3:0.0908026 4:0.604935 5:-1 6:0.0315544 
2 1:0.472093 2:0.616196 3:0.0908026 4:0.511827 5:-1 6:0.0315544 
2 1:0.472093 2:0.616196 3:0.0908026 4:0.564938 5:-0.538554 6:0.0315544 
-0.8462666738572171 1:0.472093 2:0.616196 3:0.0908026 4:-1 5:-0.538554 6:0.0315544 
-2 1:0.472093 2:0.616196 3:0.0908026 4:0.582245 5:-1 6:0.0315544 
2 1:0.472093 2:0.616196 3:0.0908026 4:0.483585 5:-0.538554 6:0.0315544 
2 1:0.362791 2:0.497259 3:0.0908026 4:0.454291 5:-1 6:0.0315544 
2 1:0.472093 2:0.616196 3:0.0908026 4:0.516245 5:-1 6:0.0315544 
-2 1:0.715504 2:0.616196 3:0.0908026 4:0.551207 5:-1 6:0.592967 
-2 1:0.715504 2:0.616196 3:0.0908026 4:0.532702 5:-1 6:0.592967 
2 1:0.587597 2:0.616196 3:0.0908026 4:0.409525 5:-0.249925 6:0.605541 
2 1:0.587597 2:0.616196 3:0.0908026 4:0.513752 5:-1 6:0.605541 
-2 1:0.587597 2:0.616196 3:0.0908026 4:0.420984 5:-1 6:0.605541 
-2 1:0.0937984 2:0.616196 3:0.0908026 4:0.532702 5:-0.624962 6:0.184042 
2 1:0.0937984 2:0.616196 3:0.0908026 4:0.532702 5:-1 6:0.184042 
-2 1:0.0937984 2:0.616196 3:0.0908026 4:0.532702 5:-0.624962 6:0.184042 
-2 1:0.0937984 2:0.616196 3:0.0908026 4:0.532702 5:-1 6:0.184042 
2 1:0.0937984 2:0.616196 3:0.0908026 4:0.532702 5:-0.624962 6:0.184042 
-2 1:0.102326 2:0.625474 3:0.0908026 4:0.532702 5:-1 6:0.184042 
2 1:0.096124 2:0.618726 3:0.0908026 4:0.532702 5:-1 6:0.184042 
-2 1:0.290698 2:0.830451 3:0.0908026 4:0.532702 5:-1 6:0.184042 
-2 1:0.494574 2:0.616196 3:0.0908026 4:0.532702 5:-0.624962 6:0.312487 
2 1:0.494574 2:0.616196 3:0.0908026 4:0.532702 5:-1 6:0.312487 
2 1:0.489922 2:0.477857 3:0.0908026 4:0.532702 5:-1 6:0.67849 
2 1:0.622481 2:0.6221 3:0.0908026 4:0.536379 5:-1 6:0.67849 
2 1:0.596899 2:0.594264 3:0.0908026 4:0.53161 5:-1 6:0.67849 
2 1:0.520155 2:0.510755 3:0.0908026 4:0.570612 5:-1 6:0.67849 
2 1:0.399225 2:0.379165 3:0.0908026 4:0.472206 5:-1 6:0.67849 
2 1:0.617054 2:0.616196 3:0.0908026 4:0.512731 5:-1 6:0.67849 
2 1:0.617054 2:0.616196 3:0.0908026 4:0.549068 5:-1 6:0.67849 
2 1:0.617054 2:0.616196 3:0.0908026 4:0.496307 5:-1 6:0.67849 
2 1:0.553488 2:0.616196 3:0.0908026 4:0.533433 5:-1 6:0.446132 
2 1:0.553488 2:0.616196 3:0.0908026 4:0.531504 5:-1 6:0.446132 
2 1:0.553488 2:0.616196 3:0.0908026 4:0.529749 5:-0.333333 6:0.446132 
2 1:0.553488 2:0.616196 3:0.0908026 4:0.531492 5:-1 6:0.446132 
2 1:0.553488 2:0.616196 3:0.0908026 4:0.530605 5:0.636364 6:0.446132 
2 1:0.553488 2:0.616196 3:0.0908026 4:0.533556 5:-1 6:0.446132 
0.1118743509325855 1:0.553488 2:0.616196 3:0.0908026 4:0.53047 5:0.20012 6:0.446132 
2 1:0.608527 2:0.676086 3:0.0908026 4:0.532074 5:-1 6:0.446132 
-2 1:0.553488 2:0.616196 3:0.0908026 4:0.532702 5:-1 6:0.446132 
-2 1:0.553488 2:0.616196 3:0.0908026 4:0.533129 5:-1 6:0.446132 
2 1:0.553488 2:0.616196 3:0.0908026 4:0.532332 5:-1 6:0.446132 
2 1:0.553488 2:0.616196 3:0.0908026 4:0.533135 5:-1 6:0.446132 
2 1:0.553488 2:0.616196 3:0.0908026 4:0.531506 5:-1 6:0.446132 
-2 1:0.621705 2:0.616196 3:0.0908026 4:0.535791 5:-0.624962 6:0.813298 
-2 1:0.621705 2:0.616196 3:0.0908026 4:0.529283 5:-0.624962 6:0.813298 
-2 1:0.625581 2:0.620413 3:0.0908026 4:0.538731 5:-1 6:0.813298 
-2 1:0.667442 2:0.665964 3:0.0908026 4:0.504899 5:-1 6:0.813298 
2 1:0.505426 2:0.616196 3:0.0908026 4:0.572662 5:-1 6:-0.0552516 
-2 1:0.505426 2:0.616196 3:0.0908026 4:0.562501 5:-1 6:-0.0552516 
-2 1:0.505426 2:0.616196 3:0.0908026 4:0.503317 5:-1 6:-0.0552516 
2 1:0.52093 2:0.633066 3:0.0908026 4:0.575698 5:-1 6:-0.0552516 
-2 1:0.458915 2:0.565584 3:0.0908026 4:0.634015 5:-1 6:-0.0552516 
2 1:0.428682 2:0.532687 3:0.0908026 4:0.83377 5:-1 6:-0.0552516 
-2 1:0.505426 2:0.616196 3:0.0908026 4:0.507925 5:0.00030003 6:-0.0552516 
2 1:0.505426 2:0.616196 3:0.0908026 4:0.684891 5:-1 6:-0.0552516 
-2 1:0.505426 2:0.616196 3:0.0908026 4:0.580373 5:-1 6:-0.0552516 
-2 1:0.505426 2:0.616196 3:0.0908026 4:0.572502 5:-1 6:-0.0552516 
-2 1:0.505426 2:0.616196 3:0.0908026 4:0.440583 5:-1 6:-0.0552516 
-2 1:0.505426 2:0.616196 3:0.0908026 4:0.493481 5:-1 6:-0.0552516 
-2 1:0.505426 2:0.616196 3:0.0908026 4:0.48586 5:-1 6:-0.0552516 
-2 1:0.505426 2:0.616196 3:0.0908026 4:0.383588 5:-1 6:-0.0552516 
-0.03013733015484444 1:0.491473 2:0.616196 3:0.0908026 4:-0.696468 5:-1 6:-1 
0.3018604330949058 1:-0.234109 2:-0.088992 3:0.0908026 4:-0.064739 5:-1 6:-0.71636 
-2 1:0.413953 2:0.616196 3:0.0908026 4:0.542951 5:-1 6:-0.71636 
-2 1:0.413953 2:0.616196 3:0.0908026 4:0.53028 5:-1 6:-0.71636 
-2 1:0.15969 2:0.0645297 3:0.0908026 4:0.427195 5:-1 6:0.837153 
-2 1:0.0496124 2:-0.0552509 3:0.0908026 4:-0.0833308 5:-1 6:0.837153 
-2 1:0.522481 2:0.4593 3:0.0908026 4:0.395484 5:-1 6:0.837153 
-1.718320010553444 1:0.666667 2:0.616196 3:0.0908026 4:0.800777 5:-0.571557 6:0.837153 
-2 1:0.564341 2:0.616196 3:0.0908026 4:0.532702 5:-0.142514 6:0.675691 
2 1:0.564341 2:0.616196 3:0.0908026 4:0.532702 5:-0.142514 6:0.675691 
-1.310322020547886 1:0.564341 2:0.616196 3:0.0908026 4:0.532702 5:1 6:0.675691 
2 1:0.694574 2:0.616196 3:0.0908026 4:0.531943 5:-0.624962 6:-0.876302 
-0.135380491671928 1:0.317054 2:0.702235 3:0.0908026 4:0.557703 5:-1 6:-0.952019 
-2 1:0.582171 2:0.616196 3:0.0908026 4:0.69763 5:-0.59976 6:-0.964394 
0.6522422884762415 1:0.582171 2:0.616196 3:-0.410662 4:0.375167 5:-0.59976 6:-0.964394 
2 1:0.381395 2:0.616196 3:-0.0169889 4:0.532702 5:-1 6:0.107775 
2 1:0.381395 2:0.616196 3:0.0908026 4:0.62261 5:-1 6:0.107775 
0.8176807670894224 1:0.381395 2:0.616196 3:0.0908026 4:0.585087 5:-0.571557 6:0.107775 
2 1:0.381395 2:0.616196 3:0.0908026 4:0.464381 5:-0.571557 6:0.107775 
-2 1:0.381395 2:0.616196 3:0.0908026 4:0.614672 5:-0.571557 6:0.107775 
-2 1:0.311628 2:0.540278 3:0.0908026 4:0.483706 5:-1 6:0.107775 
2 1:0.412403 2:0.649937 3:0.0908026 4:0.581593 5:-1 6:0.107775 
-2 1:0.433333 2:0.672712 3:0.0908026 4:0.541394 5:-1 6:0.107775 
2 1:0.368992 2:0.602699 3:0.0908026 4:0.465143 5:-1 6:0.107775 
-2 1:0.381395 2:0.616196 3:0.0908026 4:0.496511 5:-1 6:0.107775 
2 1:0.351163 2:0.616196 3:0.0908026 4:0.544497 5:-1 6:0.693308 
2 1:0.351163 2:0.616196 3:0.0908026 4:0.495506 5:-1 6:0.693308 
2 1:0.351163 2:0.616196 3:0.0908026 4:0.522025 5:-1 6:0.693308 
2 1:0.351163 2:0.616196 3:0.0908026 4:0.565445 5:-0.249925 6:0.693308 
2 1:0.351163 2:0.616196 3:0.0908026 4:0.54622 5:-0.249925 6:0.693308 
0.6144197643020074 1:0.351163 2:0.616196 3:0.0908026 4:0.560878 5:-0.59976 6:0.693308 
2 1:0.351163 2:0.616196 3:0.0908026 4:0.556553 5:-1 6:0.693308 
2 1:0.351163 2:0.616196 3:0.0908026 4:0.600256 5:-1 6:0.693308 
2 1:0.351163 2:0.616196 3:0.0908026 4:0.594069 5:-1 6:0.693308 
2 1:0.654264 2:0.616196 3:0.0908026 4:0.532583 5:-1 6:0.391795 
2 1:0.654264 2:0.616196 3:0.0908026 4:0.53149 5:-1 6:0.391795 
2 1:0.654264 2:0.616196 3:0.0908026 4:0.546651 5:-1 6:0.391795 
2 1:0.654264 2:0.616196 3:0.0908026 4:0.551788 5:-0.571557 6:0.391795 
-2 1:0.603101 2:0.560523 3:0.0908026 4:0.532702 5:-1 6:0.391795 
-2 1:0.654264 2:0.616196 3:0.0908026 4:0.532702 5:-1 6:0.391795 
-2 1:0.654264 2:0.616196 3:0.0908026 4:0.532428 5:-1 6:0.391795 
-2 1:0.524806 2:0.616196 3:0.0908026 4:0.532702 5:-0.39994 6:0.543326 
-2 1:0.524806 2:0.616196 3:0.0908026 4:0.532702 5:-0.39994 6:0.543326 
-2 1:0.524806 2:0.616196 3:0.0908026 4:0.532702 5:-1 6:0.543326 
0.5623088634927946 1:0.615504 2:0.714888 3:0.0908026 4:0.532702 5:-1 6:0.543326 
-2 1:0.503101 2:0.616196 3:0.0908026 4:0.527089 5:-1 6:-0.881239 
0.1563301186042995 1:0.503101 2:0.616196 3:-0.805507 4:0.331635 5:-1 6:-0.881239 
0.3593027640633557 1:0.503101 2:0.616196 3:0.0908026 4:-0.409885 5:-0.249925 6:-0.881239 
-2 1:0.503101 2:0.616196 3:0.0908026 4:0.557697 5:-1 6:-0.881239 
-2 1:0.489147 2:0.601012 3:0.0908026 4:0.526991 5:-1 6:-0.881239 
2 1:0.644186 2:0.769717 3:0.0908026 4:0.525135 5:-1 6:-0.881239 
-2 1:0.48062 2:0.591733 3:0.0908026 4:0.537685 5:-1 6:-0.881239 
-2 1:0.503101 2:0.616196 3:0.0908026 4:0.53631 5:-1 6:-0.881239 
2 1:0.7 2:0.616196 3:-0.507909 4:0.517496 5:-1 6:0.979301 
-2 1:0.569767 2:0.599325 3:0.0908026 4:0.562895 5:-1 6:0.93079 
-2 1:0.585271 2:0.616196 3:-0.278266 4:0.468757 5:-1 6:0.93079 
2 1:0.500775 2:0.616196 3:0.0908026 4:0.481632 5:0.00030003 6:0.113867 
2 1:0.500775 2:0.616196 3:0.0908026 4:0.517563 5:-1 6:0.113867 
2 1:0.500775 2:0.616196 3:0.0908026 4:0.516151 5:-1 6:0.113867 
-2 1:0.500775 2:0.616196 3:-0.24546 4:0.381724 5:-1 6:0.113867 
2 1:0.500775 2:0.616196 3:-0.867604 4:-0.0662797 5:-1 6:0.113867 
2 1:0.426357 2:0.616196 3:0.0908026 4:0.532702 5:-1 6:-0.565934 
2 1:0.426357 2:0.616196 3:0.0908026 4:0.532702 5:-1 6:-0.565934 
2 1:0.426357 2:0.616196 3:0.0908026 4:0.532702 5:-0.69997 6:-0.565934 
2 1:0.426357 2:0.616196 3:0.0908026 4:0.532702 5:-0.69997 6:-0.565934 
-2 1:0.426357 2:0.616196 3:0.0908026 4:0.532702 5:-1 6:-0.565934 
2 1:0.426357 2:0.616196 3:0.0908026 4:0.532702 5:-0.69997 6:-0.565934 
2 1:0.572868 2:0.624631 3:0.0908026 4:0.532702 5:-1 6:-0.809004 
-2 1:0.542636 2:0.591733 3:0.0908026 4:0.532702 5:-1 6:-0.809004 
2 1:0.565116 2:0.616196 3:0.0908026 4:0.532702 5:-1 6:-0.809004 
-2 1:0.729457 2:0.616196 3:0.0908026 4:0.569824 5:-1 6:0.373086 
-2 1:0.60155 2:0.477014 3:0.0908026 4:0.564468 5:-1 6:0.373086 
-2 1:0.729457 2:0.616196 3:0.0908026 4:0.540303 5:-1 6:0.373086 
-2 1:0.729457 2:0.616196 3:0.0908026 4:0.508472 5:-0.333333 6:0.373086 
-2 1:0.65814 2:0.616196 3:0.0908026 4:0.537883 5:-1 6:-0.540756 
-2 1:0.65814 2:0.616196 3:0.0908026 4:0.521619 5:-1 6:-0.540756 
-2 1:0.65814 2:0.616196 3:0.0908026 4:0.537471 5:-1 6:-0.540756 
-2 1:0.65814 2:0.616196 3:0.0908026 4:0.539847 5:-0.714371 6:-0.540756 
-2 1:0.65814 2:0.616196 3:0.0908026 4:0.538208 5:-0.714371 6:-0.540756 
-2 1:0.65814 2:0.616196 3:0.0908026 4:0.538882 5:-1 6:-0.540756 
2 1:0.65814 2:0.616196 3:0.0908026 4:0.559501 5:-1 6:-0.540756 
-2 1:0.65814 2:0.616196 3:0.0908026 4:0.580281 5:-1 6:-0.540756 
-2 1:0.65814 2:0.616196 3:0.0908026 4:0.535272 5:-1 6:-0.540756 
2 1:0.383721 2:0.508224 3:0.0908026 4:0.473951 5:-1 6:0.916611 
-2 1:0.644961 2:0.616196 3:0.0908026 4:0.621292 5:-1 6:0.601658 
-1.359493314061832 1:0.644961 2:0.616196 3:0.0908026 4:0.576996 5:0.20012 6:0.601658 
2 1:0.644961 2:0.616196 3:0.0908026 4:0.325358 5:-1 6:0.601658 
2 1:0.644961 2:0.616196 3:0.0908026 4:0.548719 5:-1 6:0.601658 
2 1:0.644961 2:0.616196 3:0.0908026 4:0.501225 5:0.20012 6:0.601658 
2 1:0.541085 2:0.503163 3:0.0908026 4:0.437048 5:-1 6:0.601658 
2 1:0.645736 2:0.617039 3:0.0908026 4:0.458561 5:-1 6:0.601658 
-2 1:0.644961 2:0.616196 3:0.0908026 4:0.532702 5:-1 6:0.601658 
-2 1:0.554264 2:0.616196 3:0.0908026 4:0.580377 5:-1 6:0.877132 
2 1:0.442636 2:0.494728 3:0.0908026 4:0.594239 5:-1 6:0.877132 
2 1:0.554264 2:0.616196 3:-0.455185 4:0.202045 5:-1 6:0.877132 
-1.294986652190901 1:0.650388 2:0.616196 3:0.0908026 4:0.529236 5:-1 6:1 
-2 1:0.650388 2:0.616196 3:0.0908026 4:0.524847 5:-1 6:1 
-2 1:0.634109 2:0.616196 3:0.0908026 4:0.563122 5:-1 6:0.708294 
-2 1:0.690698 2:0.677773 3:0.0908026 4:0.509709 5:-1 6:0.708294 
-2 1:0.634109 2:0.616196 3:0.0908026 4:0.444285 5:-1 6:0.708294 
-0.3053696875970421 1:0.634109 2:0.616196 3:0.0908026 4:-0.943334 5:-1 6:0.708294 
-2 1:0.634109 2:0.616196 3:0.0908026 4:0.422146 5:-0.142514 6:0.708294 
-2 1:0.634109 2:0.616196 3:-0.207967 4:0.546306 5:-1 6:0.708294 
-2 1:0.634109 2:0.616196 3:0.0908026 4:0.357309 5:-1 6:0.708294 
-2 1:0.634109 2:0.616196 3:0.0908026 4:0.584188 5:-1 6:0.708294 
-2 1:0.634109 2:0.616196 3:0.0908026 4:0.583865 5:-1 6:0.708294 
2 1:0.748062 2:0.616196 3:0.0908026 4:0.505922 5:-1 6:0.775161 
2 1:0.748062 2:0.616196 3:0.0228471 4:0.483927 5:-1 6:0.775161 
2 1:0.748062 2:0.616196 3:0.0908026 4:0.477997 5:-1 6:0.775161 
2 1:0.946512 2:0.616196 3:0.0908026 4:0.544475 5:-1 6:0.756343 
-2 1:0.946512 2:0.616196 3:0.0908026 4:0.545327 5:-1 6:0.756343 
2 1:0.889922 2:0.554618 3:0.0908026 4:0.468667 5:-1 6:0.756343 
2 1:0.869767 2:0.532687 3:0.0908026 4:0.52723 5:-1 6:0.756343 
2 1:0.812403 2:0.470266 3:0.0908026 4:0.503579 5:-1 6:0.756343 
-2 1:0.330233 2:-0.0544074 3:0.0908026 4:0.498806 5:-1 6:0.756343 
-1.285283684539027 1:0.321705 2:-0.0636862 3:0.0908026 4:0.506411 5:-1 6:0.756343 
2 1:0.946512 2:0.616196 3:0.0908026 4:0.540605 5:-1 6:0.756343 
-2 1:0.946512 2:0.616196 3:0.0908026 4:0.531328 5:-1 6:0.756343 
-2 1:0.946512 2:0.616196 3:0.0908026 4:0.534261 5:-0.59976 6:0.756343 
2 1:0.946512 2:0.616196 3:0.0908026 4:0.527285 5:-1 6:0.756343 
-2 1:0.946512 2:0.616196 3:0.0908026 4:0.523987 5:-0.249925 6:0.756343 
-2 1:0.946512 2:0.616196 3:-0.591095 4:0.51457 5:-1 6:0.756343 
-2 1:0.946512 2:0.616196 3:0.0908026 4:0.516157 5:-1 6:0.756343 
-2 1:0.946512 2:0.616196 3:0.0908026 4:0.521797 5:-1 6:0.756343 
-2 1:0.655039 2:0.616196 3:0.0908026 4:0.546616 5:-1 6:0.465399 
2 1:0.736434 2:0.704766 3:0.0908026 4:0.543296 5:-1 6:0.465399 
-2 1:0.655039 2:0.616196 3:0.0908026 4:0.331629 5:-0.50015 6:0.465399 
-2 1:0.655039 2:0.616196 3:-0.156415 4:0.331112 5:-1 6:0.465399 
-2 1:0.60155 2:0.616196 3:0.0908026 4:0.486415 5:-1 6:0.470718 
2 1:0.60155 2:0.616196 3:0.0908026 4:0.46379 5:-1 6:0.470718 
-2 1:0.60155 2:0.616196 3:0.0908026 4:0.568005 5:-1 6:0.470718 
-2 1:0.60155 2:0.616196 3:0.0908026 4:0.537272 5:-1 6:0.470718 
-2 1:0.60155 2:0.616196 3:0.0908026 4:0.5278 5:-1 6:0.470718 
2 1:0.60155 2:0.616196 3:0.0908026 4:0.561383 5:-1 6:0.470718 
-2 1:0.60155 2:0.616196 3:0.0908026 4:0.48682 5:-0.538554 6:0.470718 
2 1:0.60155 2:0.616196 3:0.0908026 4:0.563373 5:-1 6:0.470718 
2 1:0.60155 2:0.616196 3:0.0908026 4:0.539651 5:-1 6:0.470718 
-2 1:0.590698 2:0.604386 3:0.0908026 4:0.495355 5:-1 6:0.470718 
2 1:0.431008 2:0.804302 3:0.0908026 4:0.532702 5:-1 6:-0.607585 
-2 1:0.130233 2:0.477014 3:0.0908026 4:0.532702 5:-1 6:-0.607585 
-2 1:0.25814 2:0.616196 3:0.0908026 4:0.532702 5:-1 6:-0.607585 
2 1:0.25814 2:0.616196 3:0.0908026 4:0.532702 5:0.125113 6:-0.607585 
-2 1:0.25814 2:0.616196 3:0.0908026 4:0.532702 5:-1 6:-0.607585 
2 1:0.25814 2:0.616196 3:0.0908026 4:0.532702 5:-1 6:-0.607585 
-2 1:0.25814 2:0.616196 3:0.0908026 4:0.532702 5:-1 6:-0.607585 
-2 1:0.25814 2:0.616196 3:0.0908026 4:0.532702 5:-0.571557 6:-0.607585 
-2 1:0.25814 2:0.616196 3:0.0908026 4:0.532702 5:-0.571557 6:-0.607585 
-2 1:0.25814 2:0.616196 3:0.0908026 4:0.532702 5:-0.571557 6:-0.607585 
2 1:0.25814 2:0.616196 3:0.0908026 4:0.532702 5:-1 6:-0.607585 
2 1:0.25814 2:0.616196 3:0.0908026 4:0.532702 5:-1 6:-0.607585 
-1.156311429425126 1:0.811628 2:0.616196 3:0.0908026 4:0.473594 5:-1 6:0.842031 
-2 1:0.689922 2:0.616196 3:0.0908026 4:0.529451 5:0.00030003 6:0.828412 
2 1:0.618605 2:0.616196 3:0.0908026 4:0.531425 5:-1 6:-0.555482 
2 1:0.618605 2:0.616196 3:0.0908026 4:0.531978 5:-1 6:-0.555482 
2 1:0.618605 2:0.616196 3:0.0908026 4:0.533341 5:-1 6:-0.555482 
2 1:0.618605 2:0.616196 3:0.361453 4:0.54085 5:-1 6:-0.555482 
2 1:0.618605 2:0.616196 3:0.0908026 4:0.531402 5:0.00030003 6:-0.555482 
2 1:0.618605 2:0.616196 3:0.0908026 4:0.538374 5:-1 6:-0.555482 
2 1:0.618605 2:0.616196 3:0.0908026 4:0.534244 5:-1 6:-0.555482 
2 1:0.618605 2:0.616196 3:0.0908026 4:0.534156 5:-1 6:-0.555482 
2 1:0.618605 2:0.616196 3:0.0908026 4:0.535368 5:-1 6:-0.555482 
2 1:0.516279 2:0.50485 3:0.0908026 4:0.516588 5:-1 6:-0.555482 
